3418 50
@user -0.760638 0.021727 -0.100165 0.712014 0.463469 0.070665 -0.596400 0.383749 0.008674 -0.024248 -0.317830 -0.971953 0.425027 -0.596678 0.056665 -0.774931 0.659335 0.008057 -0.117795 -1.180529 0.811462 0.269756 0.371576 -0.614358 0.132404 -0.917524 -0.411130 -0.273914 -0.262767 0.282059 0.454352 -0.018231 0.947405 -0.649228 0.787407 0.484273 0.158426 0.472594 -0.217938 1.038020 -0.553902 0.178912 0.641409 -0.250719 0.683113 -0.315184 -0.239944 0.275728 0.410296 0.312381
no -0.758200 -0.013987 -0.161155 0.753643 0.521877 -0.000676 -0.661416 0.420058 -0.153133 0.019693 -0.178417 -0.982158 0.540952 -0.500146 0.196142 -0.753431 0.682223 -0.048447 -0.183048 -1.097934 0.983030 0.578399 0.413977 -0.703636 0.197573 -0.905531 -0.539695 -0.298749 -0.059228 0.411732 0.469510 -0.013720 1.086993 -0.623355 0.964982 0.644738 0.273005 0.599218 -0.227618 1.218058 -0.578618 0.252954 0.639773 -0.097165 0.710995 -0.219971 -0.201470 0.261014 0.549958 0.271121
es -0.767738 -0.006869 -0.153968 0.765253 0.519132 0.012610 -0.664927 0.402299 -0.170842 0.020392 -0.163934 -1.000651 0.565988 -0.488896 0.228182 -0.765909 0.666250 -0.048294 -0.179963 -1.106423 1.011495 0.616238 0.421722 -0.721171 0.180040 -0.928958 -0.534895 -0.283484 -0.073411 0.411098 0.475067 -0.030923 1.092303 -0.619643 0.959404 0.655374 0.270829 0.593976 -0.208758 1.254364 -0.594672 0.246799 0.631071 -0.086006 0.710436 -0.225737 -0.183518 0.265112 0.540811 0.258754
por -0.815299 0.020015 -0.144972 0.782163 0.514667 0.038278 -0.674207 0.412257 -0.175828 -0.008221 -0.188583 -1.069868 0.591347 -0.550215 0.193678 -0.805087 0.684808 -0.032504 -0.222932 -1.178593 1.063384 0.602231 0.440491 -0.752242 0.183130 -0.978685 -0.522725 -0.296283 -0.119957 0.407226 0.488807 0.004387 1.121159 -0.666459 1.013954 0.661669 0.293126 0.580537 -0.239105 1.304010 -0.610490 0.226543 0.675503 -0.087049 0.786590 -0.282421 -0.197307 0.252826 0.541267 0.289867
se -0.789475 -0.000945 -0.164568 0.793343 0.559228 -0.025040 -0.700877 0.427822 -0.229303 0.001135 -0.156942 -1.052204 0.607217 -0.483144 0.253584 -0.801108 0.703691 -0.049100 -0.199227 -1.144020 1.086360 0.679590 0.445675 -0.766237 0.193046 -0.949067 -0.559154 -0.295054 -0.028845 0.465657 0.471565 -0.025207 1.161672 -0.639792 1.036422 0.708188 0.300976 0.603662 -0.210874 1.339163 -0.600707 0.266340 0.652911 -0.081542 0.763466 -0.230967 -0.185198 0.253862 0.580932 0.263627
n -0.934557 0.000308 -0.204389 0.907581 0.638278 0.017318 -0.819654 0.480763 -0.272766 -0.010651 -0.181683 -1.241054 0.718971 -0.619464 0.294634 -0.959652 0.815644 -0.059766 -0.258656 -1.372264 1.302393 0.797498 0.520890 -0.908751 0.250403 -1.155586 -0.651154 -0.372547 -0.077625 0.527583 0.577165 -0.019767 1.379591 -0.766932 1.225943 0.810790 0.348226 0.701024 -0.239117 1.617511 -0.732867 0.288609 0.801019 -0.103915 0.916171 -0.281500 -0.221227 0.274315 0.664206 0.323052
si -0.776827 0.007513 -0.139082 0.786882 0.529207 -0.002796 -0.673203 0.421893 -0.159532 0.010305 -0.182042 -1.029517 0.568766 -0.523983 0.229440 -0.769601 0.691491 -0.032812 -0.196312 -1.141068 1.013960 0.626494 0.431899 -0.711237 0.174819 -0.955240 -0.543827 -0.308635 -0.063002 0.437395 0.478136 -0.010006 1.131030 -0.633881 1.005115 0.655146 0.269539 0.585086 -0.216869 1.277007 -0.586078 0.260928 0.666568 -0.077671 0.744509 -0.242310 -0.188432 0.257286 0.532727 0.274354
pero -0.806245 -0.011100 -0.153607 0.796586 0.564165 0.007162 -0.693249 0.437543 -0.185877 0.020262 -0.174044 -1.054572 0.609672 -0.539563 0.218686 -0.787566 0.715060 -0.047611 -0.211027 -1.177938 1.074768 0.655037 0.440512 -0.739895 0.196645 -0.965033 -0.540039 -0.321025 -0.058900 0.430832 0.482535 -0.020912 1.167740 -0.644405 1.030318 0.681687 0.296057 0.605951 -0.242980 1.319443 -0.595454 0.244792 0.684930 -0.091233 0.775744 -0.249092 -0.182806 0.274526 0.554899 0.282746
rt -0.785509 0.031419 -0.127311 0.738098 0.488743 0.082076 -0.618224 0.384766 -0.079750 -0.014522 -0.268997 -1.007398 0.494646 -0.587293 0.106732 -0.770483 0.659340 0.010136 -0.172250 -1.192095 0.915621 0.398560 0.380743 -0.665759 0.132566 -0.951466 -0.458843 -0.301974 -0.201660 0.342411 0.457445 -0.006653 1.003160 -0.641192 0.874560 0.564835 0.197370 0.498922 -0.211419 1.179448 -0.582337 0.190144 0.652580 -0.188362 0.729562 -0.294910 -0.209562 0.239105 0.465158 0.308420
ya -0.807064 -0.014330 -0.160386 0.792762 0.571773 0.007664 -0.690839 0.401388 -0.185551 0.001945 -0.168519 -1.055212 0.603478 -0.539555 0.214811 -0.804596 0.694163 -0.047475 -0.206991 -1.188497 1.069527 0.640863 0.416790 -0.747815 0.196310 -0.987558 -0.541187 -0.335643 -0.078723 0.414556 0.485727 -0.002361 1.164343 -0.667719 1.034183 0.669038 0.278886 0.581420 -0.238968 1.343666 -0.618646 0.238249 0.692724 -0.077423 0.784927 -0.253727 -0.182618 0.256155 0.544497 0.301672
más -0.820678 0.012118 -0.154681 0.818045 0.566475 0.000447 -0.695381 0.441599 -0.212465 -0.001075 -0.153744 -1.092404 0.623625 -0.521497 0.256691 -0.824544 0.714490 -0.072532 -0.225410 -1.192678 1.112575 0.683018 0.458867 -0.781047 0.211072 -0.991537 -0.543254 -0.310809 -0.042167 0.463573 0.500575 -0.007243 1.176936 -0.677450 1.068340 0.703797 0.313773 0.621385 -0.231824 1.369418 -0.643338 0.244920 0.694752 -0.082465 0.791762 -0.258515 -0.199877 0.255583 0.581421 0.288156
hoy -0.867010 0.013461 -0.160081 0.858880 0.595063 0.033228 -0.718320 0.422778 -0.231446 -0.034323 -0.175867 -1.181794 0.656719 -0.628251 0.242427 -0.858262 0.753032 -0.043202 -0.239428 -1.298614 1.185450 0.678897 0.447324 -0.821621 0.208900 -1.063462 -0.542814 -0.371349 -0.090236 0.464860 0.519354 0.015274 1.244979 -0.704966 1.112580 0.723968 0.309256 0.610232 -0.239986 1.466329 -0.668985 0.233959 0.739205 -0.085516 0.874515 -0.281489 -0.193378 0.240405 0.558806 0.337108
gracias -0.744090 0.036131 -0.118261 0.728206 0.495686 0.073881 -0.591720 0.375878 -0.145917 -0.020026 -0.215576 -1.002346 0.533700 -0.613400 0.166967 -0.736312 0.675374 0.004289 -0.205889 -1.176700 0.963659 0.502569 0.386399 -0.693688 0.149400 -0.961140 -0.443282 -0.322844 -0.156585 0.353237 0.455822 0.005753 1.060663 -0.619196 0.925166 0.593731 0.201768 0.509605 -0.219295 1.235861 -0.555261 0.179581 0.668477 -0.143464 0.755615 -0.266048 -0.181369 0.232818 0.454520 0.336965
- -0.770949 0.028722 -0.121941 0.711769 0.492779 0.065195 -0.618036 0.341584 -0.164407 -0.021159 -0.193426 -0.996472 0.558301 -0.593800 0.197917 -0.743004 0.652648 -0.024957 -0.188813 -1.161398 0.955048 0.517301 0.389181 -0.681158 0.174026 -0.938548 -0.448980 -0.330309 -0.116997 0.371207 0.448844 0.024700 1.040117 -0.630390 0.934920 0.596659 0.214215 0.491545 -0.198302 1.247579 -0.583614 0.167025 0.660344 -0.119013 0.751004 -0.271082 -0.155345 0.210352 0.444055 0.294402
hay -0.819634 0.008238 -0.149289 0.827424 0.555107 0.011347 -0.698286 0.434970 -0.185936 0.007975 -0.180965 -1.069849 0.598226 -0.543317 0.227544 -0.818502 0.714061 -0.031986 -0.191828 -1.194637 1.079587 0.643317 0.438240 -0.754108 0.180891 -0.986537 -0.563267 -0.307761 -0.079093 0.439277 0.475991 -0.019666 1.173942 -0.656602 1.032536 0.685941 0.285757 0.615530 -0.236860 1.354410 -0.627004 0.257353 0.681863 -0.091215 0.780278 -0.248003 -0.206608 0.256672 0.571081 0.288278
rajoy -0.829698 -0.011839 -0.192196 0.825112 0.565783 -0.008053 -0.737266 0.436713 -0.267709 0.009000 -0.154205 -1.096847 0.643105 -0.500410 0.297387 -0.839556 0.726461 -0.063211 -0.230872 -1.178540 1.152671 0.751888 0.478668 -0.817463 0.202521 -1.007863 -0.581027 -0.308759 -0.021407 0.490562 0.510263 -0.020391 1.209686 -0.688951 1.101811 0.744923 0.322726 0.641418 -0.208645 1.439496 -0.643212 0.254049 0.710760 -0.071054 0.811605 -0.258564 -0.169256 0.252159 0.596485 0.271127
nos -0.822788 -0.010477 -0.166672 0.829764 0.558712 0.014212 -0.717082 0.429443 -0.205254 -0.013757 -0.172299 -1.117381 0.610406 -0.565854 0.242330 -0.835489 0.712338 -0.049728 -0.211099 -1.221859 1.121062 0.650487 0.464111 -0.772760 0.193301 -1.015270 -0.543078 -0.330862 -0.079340 0.439992 0.486575 -0.008538 1.197374 -0.678031 1.068905 0.704918 0.307571 0.617207 -0.234552 1.379723 -0.634751 0.253125 0.712652 -0.081341 0.811252 -0.258742 -0.189567 0.244693 0.563146 0.301589
o -0.810754 -0.017935 -0.145071 0.811961 0.557142 0.010837 -0.694872 0.433675 -0.204488 -0.005874 -0.177846 -1.048944 0.590036 -0.538268 0.226331 -0.811778 0.692664 -0.041056 -0.215281 -1.171775 1.085419 0.668963 0.455238 -0.765776 0.196404 -0.988108 -0.554425 -0.314831 -0.067774 0.451409 0.483675 -0.014054 1.167380 -0.665557 1.027724 0.695862 0.281561 0.593943 -0.226937 1.344981 -0.615789 0.235452 0.676193 -0.081732 0.787532 -0.241600 -0.200630 0.269562 0.569064 0.271342
pp -0.850129 -0.008084 -0.191913 0.866859 0.598904 0.010938 -0.787439 0.439673 -0.237446 0.022106 -0.164281 -1.123765 0.688800 -0.548146 0.284485 -0.877020 0.775546 -0.056362 -0.210076 -1.235075 1.162419 0.749662 0.468109 -0.842166 0.231601 -1.036752 -0.605672 -0.323903 -0.049156 0.480739 0.525745 -0.003081 1.270770 -0.727437 1.118711 0.758464 0.319422 0.661085 -0.220140 1.457265 -0.684099 0.261808 0.733617 -0.090762 0.831439 -0.269199 -0.183572 0.277018 0.633164 0.277528
todos -0.785870 0.030597 -0.122172 0.759775 0.583566 0.050706 -0.628342 0.345631 -0.226676 -0.042364 -0.127186 -1.103145 0.631230 -0.616436 0.258026 -0.776657 0.680906 -0.042658 -0.242970 -1.219615 1.069439 0.660423 0.390107 -0.729862 0.175965 -1.005601 -0.475217 -0.397878 -0.104534 0.411359 0.458258 0.021448 1.146605 -0.614157 1.050239 0.660533 0.262105 0.507784 -0.229031 1.386124 -0.603036 0.184328 0.692745 -0.054353 0.829224 -0.228950 -0.118265 0.201641 0.464987 0.341166
gobierno -0.818685 0.002305 -0.174472 0.821817 0.569191 0.016493 -0.717992 0.432297 -0.233982 0.002459 -0.144342 -1.091844 0.630120 -0.508813 0.279726 -0.823301 0.699066 -0.064284 -0.233068 -1.166382 1.124989 0.722455 0.462392 -0.799618 0.195515 -0.988394 -0.552790 -0.309978 -0.034389 0.455014 0.490657 -0.022722 1.185983 -0.689521 1.050696 0.699077 0.313234 0.619971 -0.219301 1.389850 -0.638247 0.233634 0.698384 -0.074166 0.797866 -0.236084 -0.170507 0.251358 0.580961 0.276774
españa -0.855657 0.000822 -0.182449 0.836481 0.567739 0.016389 -0.735714 0.449906 -0.247296 -0.006352 -0.158537 -1.111751 0.663510 -0.535569 0.273519 -0.842787 0.741756 -0.065304 -0.234993 -1.226069 1.166962 0.722222 0.489189 -0.828167 0.202304 -1.033896 -0.580883 -0.308451 -0.062816 0.467006 0.515422 -0.015273 1.205863 -0.715189 1.110215 0.741403 0.313744 0.651941 -0.225854 1.429436 -0.668663 0.236037 0.719888 -0.090885 0.823099 -0.274269 -0.208066 0.246999 0.613285 0.284410
está -0.852149 0.009032 -0.172236 0.824506 0.560964 0.025099 -0.714432 0.453295 -0.230570 0.003789 -0.186262 -1.123760 0.630484 -0.561341 0.231508 -0.839672 0.737341 -0.061196 -0.216072 -1.223314 1.140544 0.692728 0.461865 -0.825084 0.185507 -1.021641 -0.560866 -0.334673 -0.077781 0.459765 0.506739 -0.004242 1.199371 -0.712419 1.063509 0.724616 0.311367 0.642822 -0.246285 1.412745 -0.662691 0.230820 0.707477 -0.081062 0.834479 -0.261972 -0.192130 0.284898 0.593925 0.296939
porque -0.849388 -0.002094 -0.169548 0.866414 0.592481 0.000154 -0.747431 0.454548 -0.206928 0.008646 -0.187143 -1.128552 0.649000 -0.590250 0.242829 -0.849713 0.761304 -0.047882 -0.224357 -1.248311 1.157429 0.691938 0.473593 -0.803648 0.220118 -1.047114 -0.585892 -0.350402 -0.063519 0.468848 0.530037 -0.022062 1.247230 -0.690987 1.114444 0.736454 0.320355 0.649565 -0.259530 1.420616 -0.666311 0.253065 0.733344 -0.081577 0.829128 -0.247169 -0.206534 0.277161 0.580223 0.317803
ahora -0.871043 -0.001756 -0.164709 0.871823 0.615232 0.019161 -0.760390 0.457211 -0.222945 0.000157 -0.162943 -1.161880 0.681273 -0.598405 0.250852 -0.867528 0.774782 -0.061888 -0.242600 -1.279511 1.184569 0.717944 0.468678 -0.828779 0.225375 -1.069163 -0.601939 -0.365663 -0.069386 0.482727 0.532319 -0.008171 1.276930 -0.719664 1.143450 0.737195 0.315893 0.646017 -0.232534 1.469415 -0.661408 0.261956 0.758285 -0.073136 0.849832 -0.264834 -0.189837 0.263177 0.610893 0.313617
he -0.888040 -0.003408 -0.185987 0.883564 0.640558 0.020788 -0.767738 0.466421 -0.239948 -0.008256 -0.199863 -1.197646 0.694539 -0.633840 0.235986 -0.887686 0.790507 -0.058256 -0.263977 -1.335878 1.223097 0.713178 0.484711 -0.857567 0.222439 -1.104822 -0.614681 -0.391215 -0.089261 0.477550 0.542462 -0.011214 1.312383 -0.762738 1.142309 0.773161 0.333743 0.646607 -0.264071 1.510828 -0.688242 0.271704 0.760419 -0.085592 0.890125 -0.296952 -0.191313 0.275000 0.619022 0.348378
mañana -0.829053 0.015095 -0.160278 0.833624 0.558889 0.014269 -0.690605 0.431941 -0.238571 -0.031084 -0.166977 -1.097507 0.645396 -0.590172 0.228143 -0.815612 0.730798 -0.035658 -0.220904 -1.219509 1.142966 0.664092 0.450275 -0.799918 0.211389 -1.010052 -0.570593 -0.346903 -0.062548 0.448890 0.484097 0.015034 1.198548 -0.682992 1.074756 0.708265 0.311446 0.595091 -0.212862 1.408247 -0.634268 0.242016 0.702472 -0.100424 0.837130 -0.266612 -0.195661 0.216657 0.564849 0.317274
todo -0.823179 -0.008789 -0.168520 0.819296 0.558577 0.019785 -0.719352 0.425683 -0.216290 -0.008565 -0.173023 -1.113975 0.635997 -0.577186 0.245821 -0.812519 0.737517 -0.030627 -0.208634 -1.218081 1.124183 0.679885 0.446806 -0.786723 0.193633 -1.025141 -0.541534 -0.326127 -0.078735 0.450277 0.511445 -0.013745 1.203735 -0.693702 1.063386 0.719467 0.302481 0.626421 -0.229436 1.406693 -0.625403 0.236899 0.714468 -0.076466 0.820732 -0.263011 -0.197258 0.258088 0.583291 0.306001
día -0.738027 0.016232 -0.130485 0.724499 0.514125 0.059963 -0.622365 0.376303 -0.194334 -0.015916 -0.153406 -1.000607 0.562621 -0.558816 0.203371 -0.734344 0.652301 -0.024420 -0.192914 -1.118890 0.979198 0.553179 0.394119 -0.723537 0.171858 -0.914868 -0.484728 -0.298988 -0.077740 0.381371 0.441220 -0.005333 1.044997 -0.617929 0.934727 0.622838 0.258449 0.537116 -0.221893 1.262744 -0.581458 0.195608 0.636980 -0.102285 0.752448 -0.250954 -0.145062 0.247392 0.491176 0.282987
psoe -0.744076 0.012525 -0.178006 0.765898 0.530362 0.009195 -0.669765 0.410679 -0.236226 0.025419 -0.140215 -0.999361 0.582730 -0.470356 0.268141 -0.770660 0.673825 -0.067863 -0.174402 -1.101699 1.037931 0.681060 0.435108 -0.755940 0.200274 -0.933908 -0.554162 -0.293901 -0.035068 0.436129 0.470989 -0.012418 1.128669 -0.635348 0.984404 0.678428 0.296473 0.597134 -0.216130 1.299228 -0.585436 0.216360 0.634731 -0.093918 0.758411 -0.234751 -0.184958 0.239626 0.548805 0.251492
sin -0.896408 0.006775 -0.170668 0.900268 0.644380 0.028919 -0.773982 0.454457 -0.237564 -0.003072 -0.174436 -1.193309 0.684995 -0.611139 0.291949 -0.900085 0.794227 -0.048021 -0.242795 -1.316440 1.222401 0.743359 0.504916 -0.856061 0.209412 -1.114688 -0.612409 -0.366367 -0.075657 0.501390 0.544490 -0.004468 1.324049 -0.737663 1.168526 0.781385 0.316250 0.664583 -0.251794 1.527051 -0.693810 0.252761 0.767770 -0.086882 0.882501 -0.281144 -0.214918 0.276816 0.637085 0.316894
son -0.815742 -0.003302 -0.150863 0.804248 0.559393 0.035688 -0.692001 0.417868 -0.199215 -0.003595 -0.170265 -1.096319 0.612072 -0.553670 0.244548 -0.831612 0.727197 -0.031937 -0.200347 -1.212542 1.082756 0.650255 0.438970 -0.777498 0.192292 -1.010587 -0.550780 -0.324717 -0.085627 0.433606 0.482014 0.001588 1.166820 -0.651082 1.043921 0.691266 0.290450 0.590113 -0.215033 1.346639 -0.616051 0.226062 0.692366 -0.104329 0.780592 -0.250936 -0.193085 0.238509 0.561179 0.287837
va -0.757963 -0.003622 -0.150461 0.770765 0.537607 0.004687 -0.676379 0.410166 -0.187545 0.000767 -0.161461 -1.020923 0.581973 -0.507354 0.229897 -0.773331 0.676165 -0.027347 -0.202056 -1.123942 1.043157 0.645063 0.415554 -0.746535 0.181528 -0.951598 -0.546804 -0.314761 -0.075990 0.436406 0.447617 -0.013440 1.136808 -0.630053 1.000706 0.679933 0.272514 0.583501 -0.212305 1.307943 -0.598271 0.230111 0.648130 -0.064798 0.754940 -0.245045 -0.180399 0.251978 0.534141 0.271401
ser -0.801240 0.009909 -0.141262 0.794719 0.557749 0.003306 -0.700369 0.418955 -0.201170 0.011474 -0.156283 -1.049410 0.598250 -0.551650 0.218283 -0.781582 0.710574 -0.036253 -0.188507 -1.160386 1.071074 0.638948 0.437072 -0.742721 0.208502 -0.970171 -0.526772 -0.326906 -0.078469 0.444336 0.477643 -0.021140 1.140848 -0.643869 1.030496 0.684059 0.282933 0.598594 -0.226120 1.319491 -0.599960 0.222166 0.673990 -0.091310 0.766080 -0.245774 -0.183940 0.248233 0.550573 0.291149
dice -0.781146 -0.001104 -0.157691 0.799973 0.550123 0.010479 -0.698727 0.414418 -0.203360 0.007363 -0.159806 -1.038466 0.603560 -0.502266 0.263978 -0.794361 0.693998 -0.041603 -0.197554 -1.133688 1.066085 0.661352 0.427136 -0.748177 0.205935 -0.960932 -0.556022 -0.311860 -0.042251 0.446528 0.480359 -0.012277 1.137602 -0.650304 1.032139 0.688342 0.304949 0.602001 -0.213689 1.341317 -0.611823 0.241893 0.673486 -0.072550 0.753609 -0.230213 -0.178522 0.250295 0.567505 0.273408
ver -0.849212 -0.006874 -0.152588 0.831769 0.572329 0.031941 -0.712495 0.441960 -0.192990 -0.011012 -0.188901 -1.112459 0.630984 -0.594860 0.207090 -0.825310 0.743839 -0.021442 -0.214861 -1.221475 1.103773 0.641316 0.437887 -0.789171 0.196407 -1.026181 -0.560906 -0.334319 -0.092618 0.437895 0.503043 -0.008613 1.189780 -0.696346 1.075353 0.713274 0.295025 0.589987 -0.227732 1.381562 -0.621412 0.239405 0.721135 -0.088261 0.819698 -0.257244 -0.209250 0.264041 0.580635 0.327473
mas -0.799126 -0.005253 -0.164844 0.794451 0.545148 0.026842 -0.673317 0.426526 -0.204428 0.000559 -0.168711 -1.079871 0.613039 -0.565819 0.231383 -0.807451 0.705367 -0.033513 -0.220297 -1.190310 1.066544 0.622727 0.436160 -0.761150 0.198678 -0.976393 -0.526766 -0.331803 -0.084758 0.440705 0.483077 0.007094 1.163052 -0.654157 1.036994 0.665995 0.263192 0.577014 -0.229160 1.346574 -0.627127 0.213511 0.690107 -0.091368 0.791871 -0.261004 -0.187913 0.249536 0.551467 0.304602
han -0.847177 0.009383 -0.183651 0.864980 0.604526 0.028618 -0.749505 0.449967 -0.256962 -0.029297 -0.173932 -1.171473 0.661134 -0.588560 0.259049 -0.840894 0.765968 -0.069933 -0.260634 -1.261918 1.195189 0.736351 0.466324 -0.840968 0.204211 -1.041463 -0.583571 -0.344827 -0.083578 0.466200 0.516822 0.007332 1.260918 -0.698751 1.124113 0.744415 0.337970 0.633012 -0.230912 1.452249 -0.673186 0.244902 0.743137 -0.084803 0.845976 -0.271521 -0.172233 0.254240 0.591729 0.312679
mejor -0.814694 -0.001288 -0.166647 0.782394 0.551848 0.039826 -0.675734 0.421985 -0.203762 -0.007487 -0.180552 -1.062981 0.617736 -0.557938 0.223431 -0.798623 0.693128 -0.046940 -0.216856 -1.193553 1.085100 0.648999 0.436313 -0.773640 0.188352 -0.995791 -0.538387 -0.334150 -0.071499 0.436896 0.475618 -0.013045 1.151244 -0.673250 1.027212 0.669948 0.292143 0.595711 -0.241381 1.351251 -0.626786 0.223305 0.701008 -0.080858 0.802187 -0.244795 -0.192598 0.250332 0.539834 0.301387
días -0.788511 0.139187 -0.049450 0.531269 0.641077 0.247270 -0.661444 0.186813 -0.285422 0.012317 -0.116777 -1.037431 0.814495 -0.856176 0.347050 -0.736884 0.797529 0.177974 -0.192651 -1.247129 1.015763 0.690434 0.268774 -0.776393 0.149105 -1.162923 -0.330100 -0.528166 -0.052485 0.413816 0.394700 -0.073078 1.135348 -0.556382 0.989462 0.606605 0.078081 0.383332 -0.122521 1.432805 -0.462504 0.012784 0.825861 -0.041849 0.883619 -0.070457 0.014666 0.206086 0.246856 0.454167
hacer -0.758386 0.010768 -0.147353 0.763690 0.540347 0.012418 -0.668046 0.399281 -0.195666 0.014691 -0.150523 -0.999838 0.572828 -0.505702 0.237317 -0.767938 0.675758 -0.037883 -0.188201 -1.123744 1.017442 0.636626 0.422883 -0.710080 0.184890 -0.930511 -0.532403 -0.293211 -0.069408 0.441078 0.465934 -0.010248 1.107174 -0.625636 0.999038 0.654039 0.265551 0.566330 -0.225436 1.285284 -0.583542 0.224225 0.648121 -0.068028 0.723712 -0.242024 -0.178039 0.232601 0.536936 0.273740
madrid -0.911449 0.014812 -0.176085 0.867998 0.622650 0.035662 -0.764169 0.449749 -0.270842 -0.015145 -0.172177 -1.188529 0.710791 -0.627169 0.271691 -0.892470 0.779447 -0.049847 -0.265942 -1.339118 1.223028 0.766298 0.480259 -0.866636 0.231612 -1.109483 -0.585823 -0.398365 -0.079849 0.482827 0.517234 -0.009270 1.314697 -0.736031 1.181909 0.769232 0.307946 0.648931 -0.230256 1.549511 -0.696033 0.237041 0.762368 -0.087413 0.911464 -0.279934 -0.179677 0.242358 0.592908 0.333446
tiene -0.799945 -0.012724 -0.157280 0.782129 0.537623 0.014574 -0.695913 0.428224 -0.200417 0.004275 -0.161522 -1.062461 0.599022 -0.520761 0.245183 -0.792915 0.706507 -0.050932 -0.211395 -1.167851 1.074940 0.650005 0.440346 -0.772547 0.196170 -0.986871 -0.534626 -0.312664 -0.071243 0.440957 0.478364 -0.024150 1.147943 -0.669074 1.036198 0.684407 0.282899 0.592128 -0.231354 1.346618 -0.623362 0.247756 0.688379 -0.075995 0.769594 -0.232373 -0.195877 0.255361 0.556646 0.283479
años -0.841140 -0.002768 -0.171662 0.822467 0.570719 0.013635 -0.714534 0.440693 -0.238742 0.007387 -0.165315 -1.113147 0.640734 -0.559449 0.244948 -0.834830 0.736553 -0.056547 -0.234790 -1.212692 1.148804 0.696902 0.473516 -0.799113 0.214343 -1.004540 -0.567033 -0.326245 -0.062649 0.467987 0.487752 0.003500 1.211744 -0.681584 1.093642 0.706241 0.304467 0.632044 -0.217011 1.413741 -0.646038 0.230541 0.724096 -0.088665 0.815885 -0.255298 -0.174358 0.259055 0.570753 0.310718
gran -0.849356 0.013229 -0.168734 0.809228 0.553252 0.046856 -0.713919 0.432322 -0.212055 -0.024576 -0.192621 -1.124281 0.647691 -0.590162 0.219088 -0.831439 0.723206 -0.024492 -0.225434 -1.248387 1.123266 0.635956 0.469071 -0.812336 0.192995 -1.039375 -0.552631 -0.324499 -0.116105 0.424261 0.492125 -0.005314 1.192680 -0.711878 1.056785 0.690419 0.282965 0.612303 -0.227009 1.387422 -0.646876 0.228776 0.709172 -0.105407 0.841350 -0.284236 -0.188860 0.246297 0.546890 0.321095
bien -0.746161 -0.005273 -0.147545 0.736796 0.509528 0.016834 -0.629373 0.403832 -0.181406 -0.009027 -0.157103 -1.000514 0.559855 -0.517160 0.197805 -0.739467 0.650958 -0.027929 -0.203659 -1.109698 0.996974 0.575616 0.402335 -0.703615 0.180600 -0.928673 -0.500027 -0.310047 -0.080796 0.387859 0.442598 -0.013725 1.078908 -0.607548 0.966179 0.622803 0.260417 0.560027 -0.205723 1.254341 -0.583270 0.209754 0.637053 -0.081869 0.720166 -0.232146 -0.182190 0.237782 0.504182 0.277940
% -0.855510 0.016542 -0.194952 0.822743 0.588121 0.018677 -0.741637 0.446591 -0.261573 -0.007513 -0.142794 -1.116429 0.657007 -0.531034 0.290685 -0.846086 0.707829 -0.087367 -0.226920 -1.194379 1.164389 0.756287 0.462062 -0.813627 0.229543 -1.020107 -0.564011 -0.333396 -0.021200 0.486871 0.513850 -0.001407 1.204354 -0.693771 1.100679 0.721925 0.320038 0.648034 -0.219170 1.436489 -0.653191 0.226438 0.693786 -0.083492 0.838006 -0.248271 -0.178747 0.234138 0.624305 0.271187
vía -0.797771 0.000776 -0.140167 0.770743 0.542597 0.046171 -0.678273 0.398187 -0.186367 -0.002917 -0.178236 -1.025403 0.594894 -0.539891 0.221155 -0.793503 0.668622 -0.025188 -0.210354 -1.168335 1.038571 0.612329 0.428675 -0.755997 0.184506 -0.962514 -0.501135 -0.307644 -0.090541 0.400591 0.459153 0.003307 1.116444 -0.660744 0.989413 0.643842 0.260269 0.571281 -0.213893 1.311457 -0.608387 0.212351 0.677848 -0.114030 0.778028 -0.261979 -0.192463 0.225379 0.544383 0.274374
hace -0.660349 0.001551 -0.118002 0.688492 0.489516 0.027731 -0.581281 0.331048 -0.162688 -0.021821 -0.125849 -0.911092 0.510063 -0.443542 0.212604 -0.685168 0.573939 -0.061523 -0.210965 -1.014105 0.927846 0.575327 0.354063 -0.628968 0.169391 -0.821282 -0.447349 -0.285852 -0.074077 0.369770 0.421269 -0.006841 0.993379 -0.543918 0.891649 0.579299 0.226633 0.482228 -0.196416 1.144789 -0.515601 0.199363 0.579230 -0.040755 0.666212 -0.208300 -0.154037 0.198607 0.471182 0.234969
estoy -0.767540 0.002687 -0.140190 0.753820 0.534190 0.014237 -0.650439 0.400828 -0.172457 -0.005251 -0.171860 -1.031435 0.563933 -0.527620 0.195677 -0.755824 0.669103 -0.029061 -0.211758 -1.133357 1.016586 0.608647 0.394081 -0.708491 0.183778 -0.944561 -0.516064 -0.328346 -0.086731 0.407698 0.456282 -0.000149 1.087886 -0.631477 0.962044 0.641334 0.259628 0.534908 -0.216247 1.269593 -0.589293 0.215863 0.655552 -0.073386 0.742176 -0.235122 -0.177922 0.228173 0.499026 0.276028
mucho -0.799228 0.005547 -0.160398 0.790662 0.541325 0.027943 -0.666314 0.401427 -0.188585 -0.010459 -0.170393 -1.057376 0.599412 -0.529159 0.222109 -0.779847 0.687164 -0.044473 -0.201368 -1.161916 1.068697 0.634391 0.440274 -0.751519 0.199569 -0.980087 -0.536378 -0.317203 -0.067385 0.434979 0.488521 -0.013430 1.149084 -0.665190 1.013106 0.677767 0.274862 0.596456 -0.232182 1.324923 -0.600098 0.221946 0.685327 -0.091436 0.772286 -0.254271 -0.188063 0.246761 0.548270 0.301462
tengo -0.795852 0.007695 -0.157708 0.772326 0.553732 0.011995 -0.668160 0.407906 -0.193991 -0.000118 -0.166073 -1.052047 0.618289 -0.549096 0.222503 -0.777110 0.697567 -0.050010 -0.215920 -1.172072 1.079662 0.650786 0.422105 -0.741515 0.199127 -0.974890 -0.526669 -0.339489 -0.056295 0.411662 0.483716 -0.019132 1.148850 -0.640193 1.023051 0.681049 0.285553 0.561527 -0.223114 1.329955 -0.597577 0.224093 0.669436 -0.073244 0.785934 -0.240780 -0.174621 0.233293 0.540868 0.300375
buenos -0.616874 -0.076197 0.005542 0.845298 0.667138 -0.013174 -0.489738 0.201256 -0.185027 -0.178781 0.023181 -1.129030 0.514759 -0.523235 0.302563 -0.712580 0.436873 -0.188980 -0.373167 -1.283078 1.060885 0.706057 0.219602 -0.522639 0.207463 -0.918248 -0.318117 -0.530208 -0.159834 0.339490 0.408147 0.110872 1.187921 -0.458942 1.062614 0.687218 0.267177 0.344714 -0.323347 1.427819 -0.678155 0.158883 0.665776 0.092994 0.815351 -0.268683 -0.030816 0.095769 0.339094 0.307119
ja -0.718146 -0.012029 -0.133726 0.710204 0.503919 0.024598 -0.611451 0.379215 -0.140516 0.002800 -0.183287 -0.967271 0.514477 -0.508734 0.179899 -0.730794 0.623476 -0.019810 -0.185672 -1.074344 0.934854 0.538413 0.381556 -0.668732 0.159606 -0.875313 -0.476042 -0.304744 -0.098450 0.368895 0.423759 -0.002567 1.034889 -0.587863 0.895398 0.590813 0.231305 0.522665 -0.205317 1.183035 -0.552862 0.202069 0.621938 -0.104220 0.688326 -0.230211 -0.172906 0.237821 0.476986 0.283902
voto -0.833142 0.012297 -0.159744 0.805569 0.560315 0.010277 -0.726706 0.431266 -0.218805 -0.002115 -0.169375 -1.085457 0.636279 -0.550576 0.245140 -0.825628 0.719476 -0.040473 -0.211193 -1.216608 1.110362 0.687246 0.465517 -0.773896 0.203307 -1.007161 -0.546260 -0.334269 -0.083383 0.444944 0.507138 -0.019279 1.188251 -0.677973 1.056886 0.716399 0.283155 0.609762 -0.233613 1.374069 -0.647234 0.252070 0.707297 -0.090241 0.820593 -0.256637 -0.200138 0.248652 0.564636 0.298326
m -0.826292 0.010971 -0.160307 0.820056 0.571629 0.030615 -0.721965 0.410422 -0.219921 -0.010579 -0.157317 -1.109313 0.635900 -0.561375 0.247806 -0.832774 0.720387 -0.050220 -0.212995 -1.202937 1.122464 0.692057 0.466151 -0.804842 0.210959 -1.008307 -0.563756 -0.323323 -0.072259 0.456416 0.486346 -0.006061 1.186107 -0.685968 1.064535 0.700813 0.308975 0.601002 -0.211604 1.410087 -0.645067 0.225237 0.710039 -0.078626 0.816602 -0.266759 -0.187755 0.247386 0.561699 0.304647
votar -0.720764 0.006583 -0.142285 0.710329 0.481419 0.017362 -0.606141 0.372478 -0.178931 0.013687 -0.160175 -0.937601 0.533061 -0.497955 0.188283 -0.738074 0.630342 -0.033653 -0.172891 -1.065451 0.944850 0.558726 0.404940 -0.670097 0.170350 -0.874438 -0.477090 -0.281464 -0.068258 0.374200 0.427665 -0.014227 1.018280 -0.579942 0.916655 0.617176 0.260407 0.537452 -0.190813 1.188210 -0.546257 0.214073 0.601936 -0.091274 0.715464 -0.218080 -0.180730 0.232622 0.473987 0.274895
gente -0.797868 -0.006280 -0.151241 0.774114 0.540608 0.021789 -0.677584 0.397444 -0.210675 -0.007234 -0.171282 -1.059077 0.598299 -0.532556 0.225471 -0.776676 0.704597 -0.036021 -0.214472 -1.157194 1.073158 0.649367 0.424365 -0.750728 0.187503 -0.966151 -0.522475 -0.308804 -0.081235 0.420357 0.474594 -0.016109 1.146069 -0.656863 1.016539 0.669813 0.275941 0.588134 -0.217579 1.343031 -0.623146 0.234128 0.668093 -0.071729 0.773621 -0.256040 -0.188706 0.247837 0.530942 0.286400
solo -0.812398 -0.008566 -0.157996 0.820707 0.569849 0.014336 -0.697134 0.423784 -0.207718 -0.008451 -0.164739 -1.097395 0.622203 -0.564324 0.261074 -0.804269 0.720129 -0.063496 -0.216908 -1.206265 1.118205 0.691006 0.433687 -0.778690 0.196836 -1.007002 -0.554732 -0.346861 -0.073213 0.449331 0.498759 -0.002800 1.195322 -0.657852 1.072458 0.694237 0.292149 0.590611 -0.234512 1.384588 -0.625490 0.237188 0.692956 -0.067802 0.807995 -0.256825 -0.192102 0.249267 0.561735 0.291079
puede -0.690248 0.005830 -0.129944 0.695615 0.481072 0.002078 -0.610860 0.380369 -0.182358 -0.009608 -0.134038 -0.915827 0.536860 -0.457106 0.236075 -0.697815 0.617631 -0.028733 -0.179002 -1.003496 0.934929 0.591737 0.392391 -0.660701 0.154046 -0.852986 -0.481555 -0.268035 -0.046140 0.384209 0.409433 -0.004572 1.027233 -0.572566 0.908824 0.603915 0.256444 0.518622 -0.190415 1.188447 -0.542772 0.225412 0.588355 -0.056027 0.674748 -0.207701 -0.158445 0.231454 0.477382 0.234703
vamos -0.734031 0.008106 -0.133653 0.726421 0.494787 0.031697 -0.623184 0.383079 -0.201616 0.005196 -0.154206 -0.975715 0.550765 -0.514799 0.207694 -0.723400 0.638591 -0.030376 -0.194274 -1.090533 0.976209 0.598709 0.388557 -0.709543 0.176399 -0.910803 -0.477298 -0.296357 -0.068017 0.398658 0.432209 -0.015156 1.052068 -0.610010 0.944378 0.633406 0.259541 0.535867 -0.195225 1.245505 -0.569336 0.197383 0.623346 -0.073559 0.712346 -0.236815 -0.168260 0.218386 0.507456 0.264653
contra -0.850257 -0.002943 -0.188059 0.827443 0.575209 0.022877 -0.725419 0.428625 -0.240824 0.011274 -0.175719 -1.119029 0.653806 -0.549031 0.274729 -0.842591 0.734852 -0.037898 -0.218760 -1.237094 1.156553 0.717713 0.473026 -0.834790 0.202814 -1.036402 -0.577143 -0.343021 -0.048633 0.455021 0.505297 0.001741 1.216728 -0.708832 1.090089 0.716873 0.313773 0.628604 -0.239691 1.427832 -0.648797 0.245633 0.719592 -0.084931 0.827745 -0.261559 -0.188521 0.251645 0.601059 0.295317
nada -0.731309 0.001146 -0.125433 0.733003 0.497585 0.005128 -0.623713 0.388167 -0.172362 -0.004969 -0.154076 -0.971098 0.548722 -0.506837 0.230994 -0.721570 0.632580 -0.047820 -0.201792 -1.077784 0.971951 0.608360 0.404870 -0.689503 0.184019 -0.892604 -0.502789 -0.300398 -0.063148 0.402796 0.449121 -0.005196 1.066985 -0.596502 0.936532 0.626546 0.260617 0.553725 -0.196075 1.217134 -0.560598 0.217444 0.626604 -0.080407 0.710339 -0.224066 -0.171678 0.225450 0.497321 0.260007
congreso -0.831553 0.003367 -0.172187 0.816115 0.577968 0.017368 -0.724849 0.424240 -0.234143 -0.008230 -0.154948 -1.091102 0.650224 -0.544192 0.268017 -0.822943 0.730311 -0.041528 -0.209318 -1.216596 1.114755 0.712881 0.444297 -0.808029 0.209026 -1.024482 -0.567495 -0.338924 -0.064593 0.468128 0.509613 -0.008122 1.214774 -0.678446 1.074953 0.717604 0.305600 0.620293 -0.222151 1.418271 -0.651285 0.223730 0.708302 -0.083714 0.824935 -0.255825 -0.177943 0.234103 0.586783 0.276273
menos -0.802679 0.014957 -0.159092 0.782341 0.559751 0.015350 -0.689152 0.416332 -0.210962 0.002827 -0.166414 -1.058922 0.603747 -0.539572 0.230657 -0.802555 0.702761 -0.059620 -0.222797 -1.191442 1.087153 0.659005 0.429240 -0.765357 0.200775 -0.972887 -0.527855 -0.340459 -0.078387 0.423090 0.472991 -0.009794 1.160026 -0.667780 1.026504 0.683000 0.274042 0.573279 -0.211860 1.353234 -0.614313 0.211888 0.671260 -0.076001 0.785239 -0.259832 -0.183992 0.229749 0.558745 0.297697
bueno -0.644791 -0.004154 -0.112675 0.635578 0.446122 0.005346 -0.562521 0.344790 -0.153717 -0.007861 -0.149245 -0.856226 0.486893 -0.444923 0.180047 -0.651590 0.572924 -0.038259 -0.171150 -0.963359 0.876527 0.506124 0.341952 -0.606146 0.148015 -0.798578 -0.445863 -0.270488 -0.068520 0.341016 0.381611 0.003289 0.938066 -0.533622 0.828008 0.541486 0.220398 0.472959 -0.192215 1.074433 -0.502055 0.198432 0.553095 -0.075677 0.637731 -0.211351 -0.161188 0.202146 0.437692 0.241835
nuevo -0.820073 0.008913 -0.163416 0.793958 0.553722 0.038976 -0.703273 0.405348 -0.240299 -0.025308 -0.159845 -1.095344 0.642103 -0.562507 0.258252 -0.797428 0.708208 -0.054638 -0.227073 -1.193257 1.106847 0.686233 0.426921 -0.788620 0.189458 -1.004449 -0.548936 -0.343427 -0.067391 0.444965 0.494301 0.001737 1.180082 -0.683316 1.060950 0.691719 0.302852 0.598453 -0.205598 1.383684 -0.631145 0.228143 0.686820 -0.081996 0.812403 -0.248580 -0.169062 0.226676 0.547377 0.293523
entre -0.840778 0.011914 -0.159242 0.837003 0.576313 0.032832 -0.723944 0.437123 -0.233496 -0.002142 -0.162110 -1.115492 0.642540 -0.562869 0.257624 -0.837812 0.729832 -0.047420 -0.223526 -1.226168 1.148036 0.691512 0.455803 -0.805496 0.211179 -1.030588 -0.562694 -0.333793 -0.060655 0.470177 0.500498 -0.008778 1.221988 -0.693173 1.082801 0.716705 0.306741 0.627609 -0.238917 1.417431 -0.645849 0.226325 0.711703 -0.088914 0.830560 -0.261146 -0.196909 0.236796 0.574006 0.301019
soy -0.794723 -0.001912 -0.160090 0.767486 0.548563 0.011722 -0.676245 0.409904 -0.203858 -0.011764 -0.153522 -1.049841 0.602204 -0.549104 0.237599 -0.776129 0.694016 -0.034929 -0.211215 -1.182146 1.057071 0.645322 0.434604 -0.753245 0.188937 -0.966775 -0.537600 -0.328154 -0.089907 0.431284 0.476723 -0.006570 1.137705 -0.638563 1.027908 0.675703 0.287515 0.585821 -0.223551 1.322313 -0.606636 0.217927 0.673778 -0.086090 0.765065 -0.247573 -0.187224 0.247428 0.543189 0.288407
noche -0.732900 0.013701 -0.138827 0.712041 0.499193 0.034962 -0.633943 0.363143 -0.202695 -0.024640 -0.155602 -0.986872 0.572501 -0.518399 0.196417 -0.718343 0.636734 -0.038162 -0.190349 -1.090150 0.994855 0.582782 0.403331 -0.709074 0.183112 -0.911984 -0.469265 -0.313993 -0.070590 0.386629 0.437240 0.009724 1.039457 -0.608973 0.940969 0.607087 0.250661 0.513687 -0.196832 1.245136 -0.557099 0.187455 0.619198 -0.082656 0.739973 -0.241232 -0.171573 0.211818 0.494215 0.275067
también -0.794777 -0.001195 -0.151869 0.772174 0.552913 0.021211 -0.672782 0.398789 -0.193094 0.004709 -0.170766 -1.062459 0.616318 -0.549792 0.219419 -0.797524 0.683999 -0.029892 -0.219106 -1.165476 1.076881 0.623284 0.436717 -0.754213 0.198374 -0.976823 -0.526848 -0.330915 -0.068897 0.427106 0.482945 0.002116 1.137821 -0.666197 1.027569 0.669068 0.271406 0.586462 -0.228601 1.329118 -0.606737 0.218783 0.689233 -0.097935 0.776616 -0.246484 -0.173426 0.235367 0.550136 0.288706
voy -0.701716 -0.002535 -0.128602 0.713594 0.483664 0.012418 -0.608443 0.362205 -0.172372 -0.020076 -0.153620 -0.952037 0.537271 -0.498085 0.208056 -0.701755 0.611874 -0.041824 -0.187007 -1.066823 0.949268 0.563597 0.377071 -0.670524 0.171872 -0.873552 -0.473809 -0.287165 -0.081054 0.375286 0.417156 0.000958 1.028239 -0.588844 0.906721 0.608331 0.250868 0.500820 -0.208930 1.198359 -0.551111 0.209553 0.601576 -0.072066 0.706894 -0.237305 -0.160170 0.219111 0.472826 0.269666
cosas -0.801015 -0.003856 -0.143887 0.783221 0.547756 0.008706 -0.670754 0.403622 -0.209927 0.006095 -0.165483 -1.063126 0.599580 -0.541514 0.234937 -0.798517 0.703245 -0.054215 -0.222971 -1.180944 1.073603 0.662875 0.437186 -0.752417 0.184176 -0.977896 -0.527443 -0.315110 -0.058382 0.441630 0.477399 -0.016923 1.161692 -0.664676 1.035485 0.680539 0.283763 0.593838 -0.223371 1.325396 -0.606760 0.233612 0.673182 -0.077056 0.785215 -0.240806 -0.183200 0.234493 0.562168 0.285593
e -0.857648 -0.004347 -0.162422 0.827156 0.593583 0.032204 -0.739355 0.430972 -0.244820 -0.006916 -0.178106 -1.119543 0.660227 -0.580242 0.244743 -0.853596 0.743831 -0.045351 -0.236335 -1.266270 1.161766 0.689294 0.454513 -0.832661 0.212165 -1.050335 -0.560629 -0.353210 -0.071120 0.447865 0.508307 -0.008814 1.226913 -0.693336 1.096220 0.712459 0.309104 0.623609 -0.219873 1.440259 -0.652111 0.244064 0.741412 -0.107267 0.853995 -0.267991 -0.189532 0.257062 0.584844 0.311733
rubalcaba -0.655845 -0.007612 -0.153946 0.655049 0.461829 0.006091 -0.576109 0.347728 -0.186716 -0.006400 -0.122166 -0.892890 0.525767 -0.428824 0.217291 -0.656416 0.597043 -0.043779 -0.186492 -0.972501 0.916207 0.565580 0.375106 -0.650066 0.162247 -0.802192 -0.456877 -0.260111 -0.031102 0.382188 0.392768 -0.019039 0.976569 -0.558295 0.862551 0.588786 0.249274 0.507689 -0.164863 1.129430 -0.508123 0.191875 0.570539 -0.074053 0.646938 -0.211353 -0.136043 0.203547 0.466257 0.230797
tan -0.813375 -0.004374 -0.154694 0.793861 0.549410 0.024254 -0.685692 0.417700 -0.213556 0.004077 -0.152473 -1.063358 0.617940 -0.557441 0.244985 -0.796116 0.698515 -0.030451 -0.207723 -1.190127 1.074634 0.655121 0.425715 -0.761146 0.198307 -1.000503 -0.524735 -0.343718 -0.078880 0.421796 0.488052 -0.000052 1.161019 -0.651207 1.044400 0.681082 0.282598 0.575389 -0.218880 1.360582 -0.608872 0.233892 0.688677 -0.073510 0.793401 -0.242619 -0.184877 0.245921 0.549977 0.301527
feliz -0.685683 0.001935 -0.101540 0.655554 0.466071 0.031398 -0.564392 0.334208 -0.160356 -0.030471 -0.140662 -0.947861 0.541538 -0.528701 0.177312 -0.685731 0.580404 -0.029724 -0.203717 -1.049176 0.925731 0.522344 0.362595 -0.658792 0.157549 -0.853848 -0.419684 -0.307757 -0.100076 0.340952 0.394958 0.006495 0.999184 -0.545318 0.884872 0.579781 0.229582 0.451031 -0.180236 1.164732 -0.539714 0.170511 0.608052 -0.072368 0.704109 -0.222771 -0.152207 0.186187 0.421390 0.293688
sí -0.727499 0.005855 -0.133576 0.729621 0.512750 0.026960 -0.628366 0.371166 -0.182954 0.008572 -0.160219 -0.979925 0.551902 -0.508188 0.205838 -0.726133 0.646532 -0.045075 -0.199440 -1.074330 0.980582 0.598034 0.407987 -0.700443 0.188293 -0.902461 -0.500721 -0.301841 -0.062907 0.399043 0.454713 -0.010883 1.068894 -0.619544 0.932151 0.628883 0.252446 0.544806 -0.204155 1.224543 -0.570437 0.221640 0.629211 -0.085215 0.721001 -0.235932 -0.172576 0.235966 0.493742 0.273248
crisis -0.764697 -0.003573 -0.161407 0.751721 0.514353 0.008267 -0.644929 0.377857 -0.207609 0.011284 -0.155278 -1.008188 0.577486 -0.508641 0.247825 -0.754140 0.669982 -0.041860 -0.206220 -1.096162 1.026096 0.644218 0.413046 -0.729142 0.189435 -0.933176 -0.509234 -0.300971 -0.059221 0.419495 0.453221 -0.004923 1.087159 -0.619818 0.968558 0.657832 0.275458 0.570391 -0.201501 1.288121 -0.571814 0.220360 0.639431 -0.078641 0.748895 -0.229668 -0.177964 0.229682 0.533384 0.269136
poco -0.728960 -0.001599 -0.138560 0.716246 0.487552 0.004620 -0.620792 0.386808 -0.178311 -0.000149 -0.145650 -0.966147 0.556867 -0.484003 0.216143 -0.708694 0.624279 -0.040598 -0.203161 -1.055627 0.982407 0.595570 0.396947 -0.678523 0.164796 -0.870706 -0.491653 -0.303742 -0.068449 0.387899 0.428092 -0.017754 1.047731 -0.604924 0.924355 0.619277 0.260470 0.541507 -0.203430 1.212124 -0.544958 0.211429 0.616534 -0.063010 0.713646 -0.215556 -0.168484 0.225356 0.504741 0.272930
portada -0.577823 0.007619 -0.110170 0.541230 0.391986 0.023794 -0.494722 0.285768 -0.175767 -0.023580 -0.126989 -0.748624 0.444196 -0.416361 0.185136 -0.550200 0.495268 -0.018260 -0.159887 -0.862777 0.791519 0.468233 0.293698 -0.538440 0.145976 -0.702776 -0.370866 -0.255492 -0.042543 0.292743 0.341986 0.008969 0.804168 -0.474045 0.723701 0.479999 0.220694 0.401550 -0.147219 0.974399 -0.450646 0.159462 0.479870 -0.053445 0.561238 -0.191848 -0.115129 0.157132 0.384497 0.194738
partido -0.749787 0.017995 -0.149754 0.717013 0.513565 0.021746 -0.640743 0.374474 -0.204017 -0.000425 -0.157478 -0.997292 0.575083 -0.493229 0.222588 -0.740274 0.644697 -0.029211 -0.194116 -1.079716 1.021366 0.624443 0.417088 -0.729775 0.173556 -0.909154 -0.495472 -0.303360 -0.047883 0.407589 0.453232 -0.019788 1.064544 -0.615961 0.966738 0.644382 0.261697 0.566529 -0.195224 1.267381 -0.569371 0.216421 0.632243 -0.079404 0.745136 -0.238772 -0.163874 0.227380 0.525465 0.269116
siempre -0.772801 0.010333 -0.148218 0.756689 0.513879 0.019717 -0.662717 0.400656 -0.207303 -0.000042 -0.161838 -1.014811 0.594145 -0.528371 0.228735 -0.755314 0.670509 -0.043289 -0.197904 -1.129857 1.037922 0.618253 0.414315 -0.724943 0.185370 -0.935741 -0.511632 -0.321402 -0.067137 0.418054 0.451456 -0.000985 1.088788 -0.642503 0.977483 0.646713 0.275964 0.549716 -0.204874 1.295031 -0.579318 0.214599 0.659421 -0.078498 0.747400 -0.234416 -0.170068 0.215487 0.513536 0.281635
año -0.769015 0.008021 -0.149137 0.750408 0.532420 0.037662 -0.662158 0.391969 -0.216721 -0.018615 -0.142249 -1.032795 0.590450 -0.540250 0.237817 -0.756368 0.676760 -0.058117 -0.212103 -1.145078 1.059853 0.631867 0.430819 -0.744709 0.180296 -0.945282 -0.504435 -0.316147 -0.077228 0.422705 0.465824 -0.002142 1.113573 -0.641022 1.003634 0.670695 0.289733 0.557030 -0.196703 1.317240 -0.590602 0.216374 0.665226 -0.065461 0.776249 -0.232551 -0.176589 0.221155 0.521576 0.275491
ley -0.859959 0.008560 -0.187014 0.845806 0.595942 0.013064 -0.749801 0.438476 -0.253648 0.011016 -0.171071 -1.151657 0.674862 -0.572742 0.280117 -0.858191 0.753875 -0.062776 -0.241366 -1.258999 1.172248 0.710148 0.464070 -0.830782 0.207350 -1.061692 -0.590418 -0.337824 -0.069078 0.460388 0.503743 0.003510 1.229547 -0.718545 1.117944 0.744976 0.300602 0.622554 -0.240126 1.445814 -0.646863 0.246262 0.735112 -0.077171 0.835245 -0.263968 -0.199986 0.247791 0.607920 0.293016
trabajo -0.802743 0.007010 -0.165617 0.798851 0.540110 0.030045 -0.675380 0.398576 -0.212218 -0.003039 -0.163094 -1.069283 0.626570 -0.541862 0.230460 -0.780414 0.696618 -0.040417 -0.213478 -1.185938 1.084619 0.658550 0.442996 -0.766487 0.185788 -0.968815 -0.538718 -0.319144 -0.059874 0.436089 0.490652 0.011335 1.157627 -0.653332 1.026378 0.691121 0.290966 0.587578 -0.218577 1.364731 -0.626421 0.214409 0.687096 -0.081888 0.778112 -0.254665 -0.171666 0.219342 0.564150 0.282895
vez -0.767398 0.013634 -0.148232 0.746536 0.515201 0.020102 -0.645657 0.398809 -0.215918 -0.004832 -0.159730 -1.008491 0.583458 -0.516578 0.228028 -0.767083 0.659885 -0.048561 -0.202919 -1.121280 1.040777 0.629265 0.419349 -0.718265 0.187368 -0.936308 -0.510782 -0.310152 -0.058526 0.416386 0.454085 -0.014173 1.095053 -0.622466 0.982070 0.637589 0.280772 0.562154 -0.198880 1.293020 -0.584877 0.207597 0.651009 -0.085806 0.734699 -0.240517 -0.178255 0.224972 0.521621 0.278634
via -0.683581 -0.001833 -0.122876 0.661507 0.454491 0.033852 -0.586500 0.331958 -0.166317 -0.012668 -0.158614 -0.887876 0.514416 -0.460550 0.184470 -0.667325 0.595339 -0.033504 -0.171410 -1.010779 0.891749 0.529285 0.371615 -0.636993 0.155001 -0.824922 -0.430954 -0.284371 -0.064417 0.345225 0.399778 -0.012701 0.952933 -0.561868 0.842503 0.551676 0.233757 0.485965 -0.170891 1.122735 -0.534015 0.180043 0.582323 -0.085909 0.655065 -0.215241 -0.150470 0.205084 0.465285 0.249399
estado -0.844862 -0.011970 -0.170262 0.824711 0.585479 0.030330 -0.729004 0.435120 -0.222552 -0.011571 -0.174042 -1.106575 0.634052 -0.553594 0.254757 -0.831043 0.722968 -0.039319 -0.222419 -1.224511 1.142850 0.689290 0.454458 -0.794235 0.211500 -1.021900 -0.567964 -0.346621 -0.065616 0.453664 0.488600 -0.011589 1.212053 -0.701766 1.073643 0.704960 0.297067 0.624722 -0.225338 1.413378 -0.635118 0.229172 0.712994 -0.080096 0.815596 -0.258977 -0.194565 0.236694 0.598319 0.300178
espero -0.730877 0.005690 -0.133325 0.704840 0.505907 0.032208 -0.610594 0.368781 -0.199122 -0.009714 -0.151505 -0.971553 0.565522 -0.519274 0.203797 -0.704676 0.636704 -0.041871 -0.199051 -1.076717 0.970265 0.594891 0.383359 -0.684495 0.169253 -0.887956 -0.480021 -0.310932 -0.060610 0.386810 0.436949 -0.007045 1.049687 -0.601644 0.923311 0.607121 0.242385 0.522419 -0.195273 1.234784 -0.561362 0.185406 0.621559 -0.075130 0.726164 -0.224879 -0.164239 0.214778 0.493005 0.277606
creo -0.608522 -0.009357 -0.104996 0.603582 0.411308 0.003065 -0.525759 0.310396 -0.141898 0.004251 -0.140644 -0.795730 0.452088 -0.428158 0.172117 -0.608165 0.539774 -0.022381 -0.158455 -0.894882 0.811285 0.487809 0.332332 -0.563052 0.146947 -0.745890 -0.398994 -0.253050 -0.065705 0.316340 0.370920 -0.009103 0.878656 -0.484012 0.776207 0.513422 0.210165 0.444967 -0.163938 1.001668 -0.471269 0.173512 0.514380 -0.069865 0.600271 -0.184253 -0.134189 0.198610 0.404726 0.217192
parece -0.684470 -0.004970 -0.138678 0.674096 0.480477 0.022682 -0.595769 0.359806 -0.188497 -0.006628 -0.134207 -0.906874 0.523571 -0.467144 0.213005 -0.673354 0.595078 -0.044837 -0.193256 -1.002351 0.918570 0.569892 0.384781 -0.647146 0.155012 -0.844507 -0.450658 -0.279188 -0.066988 0.373283 0.400607 -0.015784 0.981908 -0.568261 0.878476 0.588888 0.242228 0.512076 -0.181947 1.142003 -0.524150 0.186437 0.582596 -0.067361 0.665267 -0.213094 -0.166765 0.212502 0.477193 0.241654
quien -0.782039 0.011442 -0.166698 0.761499 0.527541 -0.008039 -0.690139 0.397289 -0.232684 -0.002993 -0.168434 -1.049616 0.625379 -0.522311 0.250514 -0.787918 0.704797 -0.045946 -0.203789 -1.137750 1.059561 0.657995 0.445136 -0.754042 0.183429 -0.947223 -0.537729 -0.316463 -0.058193 0.440980 0.487994 -0.012944 1.121696 -0.644615 1.035342 0.674823 0.294417 0.589094 -0.205303 1.338754 -0.595496 0.252712 0.658992 -0.075391 0.771078 -0.245463 -0.179460 0.230907 0.538248 0.282794
quiero -0.690794 0.016801 -0.135833 0.679726 0.471123 0.020166 -0.593014 0.355938 -0.164265 0.000811 -0.144655 -0.935877 0.516903 -0.490142 0.190878 -0.689236 0.603827 -0.033435 -0.195125 -1.018617 0.923456 0.549569 0.372227 -0.653008 0.152759 -0.845936 -0.474797 -0.293427 -0.079039 0.363091 0.418608 0.011160 0.999130 -0.566320 0.885982 0.591200 0.248568 0.505456 -0.181110 1.163333 -0.538096 0.196365 0.587534 -0.089902 0.673843 -0.219411 -0.157967 0.205087 0.473769 0.266966
mundo -0.663538 0.023629 -0.119686 0.615351 0.435794 0.016245 -0.545368 0.321528 -0.187644 -0.013105 -0.143151 -0.865219 0.510353 -0.447424 0.193152 -0.634166 0.580064 -0.036584 -0.175430 -0.950380 0.885863 0.541758 0.358679 -0.632560 0.162902 -0.803439 -0.426561 -0.275413 -0.047880 0.349824 0.380159 -0.003358 0.947207 -0.532422 0.842382 0.560461 0.215677 0.480766 -0.166055 1.087879 -0.512039 0.173463 0.555433 -0.055874 0.643533 -0.195393 -0.147526 0.202013 0.443730 0.227633
presidente -0.689258 0.004967 -0.134624 0.673753 0.477218 0.026346 -0.579645 0.343384 -0.199253 -0.014310 -0.131485 -0.920207 0.529151 -0.462723 0.206068 -0.685621 0.582268 -0.037594 -0.193945 -0.992561 0.927658 0.556143 0.375779 -0.653345 0.172995 -0.840894 -0.452584 -0.270683 -0.064004 0.365394 0.403339 0.004211 0.978028 -0.558391 0.880150 0.575154 0.256739 0.501003 -0.173930 1.163762 -0.522113 0.179948 0.595864 -0.071344 0.667550 -0.206468 -0.157225 0.201450 0.471381 0.234910
ir -0.679296 -0.001530 -0.135792 0.672697 0.475204 0.007959 -0.577591 0.356057 -0.163898 -0.006822 -0.141821 -0.917313 0.521676 -0.471803 0.198513 -0.688610 0.601365 -0.040138 -0.187673 -1.020757 0.922641 0.542321 0.380054 -0.638779 0.166298 -0.845820 -0.468751 -0.268964 -0.070993 0.368192 0.405467 -0.009269 0.983767 -0.565464 0.884048 0.569822 0.253252 0.502569 -0.187106 1.157559 -0.524889 0.207075 0.575358 -0.065888 0.677897 -0.219592 -0.158003 0.216582 0.458553 0.263771
país -0.714858 0.014384 -0.134098 0.710049 0.492198 0.022695 -0.607162 0.361807 -0.211892 -0.011812 -0.150739 -0.958139 0.547448 -0.482634 0.215376 -0.703803 0.628431 -0.047826 -0.198432 -1.058418 0.972350 0.610719 0.398738 -0.681885 0.169259 -0.875192 -0.493670 -0.292814 -0.056998 0.404460 0.436259 -0.004668 1.036507 -0.586764 0.943311 0.620088 0.258653 0.534582 -0.190693 1.226995 -0.547780 0.199723 0.602486 -0.064321 0.716749 -0.213840 -0.146164 0.205510 0.494306 0.245232
verdad -0.693894 0.010674 -0.136816 0.693889 0.476991 0.008605 -0.600200 0.352525 -0.186371 -0.010281 -0.139082 -0.936106 0.527887 -0.461049 0.219303 -0.687742 0.603163 -0.044585 -0.178586 -1.008896 0.928023 0.566563 0.387295 -0.658220 0.176165 -0.849236 -0.472463 -0.271712 -0.068266 0.374922 0.424458 -0.001422 1.008988 -0.562873 0.894274 0.579909 0.246519 0.516022 -0.205059 1.161478 -0.542089 0.204629 0.601674 -0.066264 0.681715 -0.222692 -0.165322 0.211184 0.466035 0.255584
otro -0.746839 -0.003443 -0.136364 0.720717 0.509852 0.022818 -0.633743 0.370551 -0.183163 -0.014582 -0.155775 -0.968029 0.557593 -0.505700 0.201725 -0.735012 0.639086 -0.038629 -0.204055 -1.090812 0.974113 0.582988 0.406643 -0.691668 0.172485 -0.891613 -0.471378 -0.300112 -0.070594 0.386015 0.447316 -0.012510 1.050143 -0.610177 0.939416 0.610235 0.253063 0.543449 -0.194589 1.234752 -0.569453 0.196710 0.636371 -0.071751 0.720052 -0.236034 -0.164091 0.223188 0.502733 0.280295
millones -0.730777 0.012872 -0.149528 0.710259 0.498539 0.028735 -0.608419 0.377732 -0.210780 0.002452 -0.125799 -0.957322 0.564635 -0.464062 0.239924 -0.717706 0.616278 -0.067372 -0.189227 -1.052130 0.984404 0.594147 0.408399 -0.688845 0.195362 -0.866121 -0.480391 -0.295549 -0.031863 0.406803 0.417394 -0.012854 1.042283 -0.610061 0.925601 0.621899 0.282051 0.517905 -0.190716 1.210322 -0.572382 0.211057 0.601484 -0.060451 0.699268 -0.233282 -0.161097 0.207285 0.511218 0.260318
buenas -0.574573 0.048033 -0.088343 0.612320 0.421936 -0.026650 -0.484557 0.349470 -0.213589 -0.053910 -0.125222 -0.844069 0.498975 -0.493285 0.209407 -0.552498 0.519183 0.010729 -0.173351 -0.888882 0.864383 0.480735 0.304167 -0.578890 0.170865 -0.775164 -0.456171 -0.267609 -0.002418 0.338131 0.322197 0.075837 0.870766 -0.514112 0.787304 0.519808 0.251134 0.387468 -0.134937 1.074132 -0.464124 0.165166 0.557907 -0.079987 0.645538 -0.146069 -0.092952 0.101672 0.375820 0.260409
@ -0.775887 0.010881 -0.155020 0.754212 0.520920 0.033937 -0.661287 0.389450 -0.216896 0.000019 -0.152447 -1.028450 0.598158 -0.514744 0.231536 -0.773946 0.668372 -0.031708 -0.207824 -1.141512 1.049403 0.641253 0.431548 -0.742906 0.187365 -0.957493 -0.520203 -0.300938 -0.052594 0.412126 0.446356 0.000073 1.117393 -0.652231 0.996996 0.666408 0.282308 0.569809 -0.194464 1.321638 -0.593885 0.218736 0.664149 -0.080591 0.773654 -0.248215 -0.154546 0.216943 0.526544 0.287128
#sumatealcambio -0.768524 0.007281 -0.149688 0.786412 0.535094 0.040536 -0.670038 0.391572 -0.217947 -0.009998 -0.152629 -1.046913 0.610384 -0.520575 0.239389 -0.789880 0.691330 -0.044205 -0.223110 -1.150255 1.073844 0.646278 0.422327 -0.758656 0.187127 -0.974528 -0.510591 -0.322641 -0.076233 0.417377 0.455757 -0.004577 1.137874 -0.634108 1.021195 0.682772 0.274880 0.581978 -0.206540 1.314074 -0.605060 0.229396 0.662559 -0.073236 0.762682 -0.245828 -0.184397 0.226563 0.555253 0.296506
reforma -0.763592 0.008033 -0.165346 0.761659 0.542787 0.027382 -0.654983 0.372495 -0.229594 0.004531 -0.123951 -1.013214 0.604847 -0.469461 0.267683 -0.756439 0.653527 -0.055697 -0.217273 -1.088146 1.034234 0.663935 0.423813 -0.736048 0.205430 -0.903947 -0.535247 -0.300932 -0.027143 0.441434 0.465492 0.004911 1.108098 -0.622549 0.999527 0.642332 0.275902 0.567822 -0.223195 1.280394 -0.583804 0.203336 0.656160 -0.063789 0.746830 -0.219710 -0.153660 0.207003 0.552572 0.251254
#cadavotovale -0.757210 -0.003728 -0.153718 0.755241 0.508929 0.016231 -0.639805 0.372705 -0.203221 -0.001142 -0.145974 -1.002064 0.587609 -0.508853 0.230314 -0.742194 0.654554 -0.044902 -0.206958 -1.118316 1.034220 0.605257 0.407053 -0.719956 0.185287 -0.935236 -0.506394 -0.306588 -0.055253 0.395744 0.445917 0.000959 1.093655 -0.631843 0.969094 0.636356 0.269131 0.544452 -0.196820 1.283704 -0.574692 0.216095 0.653123 -0.088267 0.736116 -0.243552 -0.164742 0.222246 0.509214 0.270342
h -0.797533 0.015126 -0.141798 0.792292 0.554022 0.032710 -0.686297 0.401197 -0.213293 -0.008148 -0.156556 -1.078963 0.611252 -0.548093 0.237894 -0.808455 0.692226 -0.053855 -0.211747 -1.186678 1.098659 0.643049 0.434320 -0.792176 0.185991 -1.004916 -0.539300 -0.334722 -0.079363 0.422699 0.473706 0.002315 1.150667 -0.664496 1.020383 0.673672 0.295509 0.580905 -0.218192 1.351469 -0.621371 0.211677 0.696760 -0.087368 0.802498 -0.247749 -0.180324 0.216542 0.552188 0.304205
vida -0.710795 0.009160 -0.128244 0.684947 0.481827 0.021496 -0.599963 0.354276 -0.181145 -0.010549 -0.126579 -0.943818 0.540484 -0.492035 0.221345 -0.682284 0.597587 -0.035793 -0.190582 -1.046421 0.939530 0.580405 0.389272 -0.671598 0.176039 -0.868862 -0.459964 -0.293186 -0.052584 0.375672 0.430235 -0.010217 1.008102 -0.571503 0.898891 0.592464 0.259101 0.516605 -0.205124 1.190906 -0.537139 0.196889 0.612191 -0.073242 0.687044 -0.219242 -0.161062 0.204107 0.482837 0.257354
están -0.720421 0.004288 -0.128015 0.693055 0.484060 0.021034 -0.609297 0.373625 -0.198819 -0.000487 -0.150872 -0.947820 0.544638 -0.480280 0.220961 -0.707606 0.637201 -0.038618 -0.184475 -1.039960 0.968696 0.598419 0.381390 -0.694746 0.181129 -0.883648 -0.480513 -0.293677 -0.053551 0.392151 0.428370 -0.016643 1.041043 -0.582065 0.925552 0.609503 0.249362 0.515622 -0.195438 1.208073 -0.540468 0.201226 0.620960 -0.070568 0.702079 -0.210701 -0.153339 0.223047 0.486519 0.264126
será -0.707928 0.005464 -0.132656 0.708714 0.497566 0.011014 -0.611858 0.373023 -0.194983 -0.002535 -0.134329 -0.953139 0.551287 -0.492122 0.225022 -0.701799 0.615126 -0.033658 -0.203578 -1.046827 0.978760 0.593665 0.381339 -0.696395 0.183702 -0.881628 -0.482597 -0.300507 -0.053041 0.378828 0.427152 -0.010016 1.034308 -0.596847 0.915493 0.605063 0.266589 0.518114 -0.183245 1.204523 -0.543002 0.191240 0.617296 -0.082138 0.709317 -0.222006 -0.155294 0.199340 0.498361 0.264079
domingo -0.663841 0.010392 -0.129102 0.642183 0.458308 0.019369 -0.551639 0.323775 -0.187732 -0.019643 -0.145674 -0.874162 0.519579 -0.470982 0.186852 -0.660792 0.568413 -0.023465 -0.171879 -0.989506 0.897012 0.533313 0.350028 -0.624212 0.152250 -0.814626 -0.425029 -0.275046 -0.070702 0.354223 0.382147 -0.010876 0.947522 -0.554872 0.841087 0.549922 0.238993 0.468694 -0.187934 1.128306 -0.518287 0.191071 0.568176 -0.062284 0.651439 -0.215743 -0.138480 0.182023 0.451739 0.250445
política -0.672779 0.003590 -0.130684 0.652173 0.455901 0.024165 -0.567108 0.332148 -0.167765 0.002233 -0.132112 -0.879834 0.508418 -0.446371 0.195879 -0.655909 0.584133 -0.036185 -0.180034 -0.975703 0.892840 0.536916 0.374687 -0.643486 0.153645 -0.823507 -0.438016 -0.263763 -0.046932 0.368027 0.402707 -0.004768 0.968367 -0.560267 0.853144 0.565065 0.227674 0.496317 -0.173060 1.125251 -0.503943 0.176211 0.579658 -0.079951 0.648460 -0.203712 -0.158482 0.200775 0.462631 0.237614
mismo -0.613275 0.007881 -0.119374 0.621962 0.437241 0.012079 -0.517873 0.319305 -0.144744 -0.015424 -0.130690 -0.817971 0.454851 -0.412461 0.174315 -0.612744 0.534425 -0.038374 -0.169240 -0.919302 0.840384 0.501756 0.329044 -0.574074 0.158864 -0.753231 -0.417552 -0.257164 -0.065259 0.326807 0.366392 0.000628 0.897455 -0.513088 0.792960 0.513826 0.210440 0.446481 -0.165588 1.035324 -0.485182 0.180143 0.536431 -0.070510 0.597067 -0.204557 -0.149505 0.176560 0.410643 0.215012
mal -0.566955 0.009779 -0.106176 0.564368 0.397333 0.024327 -0.491626 0.292130 -0.155055 0.001770 -0.127583 -0.780257 0.454668 -0.407547 0.165816 -0.581440 0.507247 -0.024159 -0.164629 -0.865717 0.769419 0.471046 0.305425 -0.537855 0.145530 -0.710129 -0.374734 -0.237171 -0.061058 0.302916 0.352058 -0.015515 0.837617 -0.467798 0.747319 0.481153 0.210337 0.423755 -0.163405 0.981922 -0.448896 0.150890 0.502528 -0.068246 0.564090 -0.180320 -0.129246 0.174522 0.379239 0.205602
hemos -0.797549 0.000228 -0.153528 0.774380 0.538575 0.026795 -0.668635 0.406160 -0.222893 0.003031 -0.152656 -1.058892 0.602055 -0.532941 0.229072 -0.776932 0.692332 -0.056223 -0.224730 -1.155354 1.082510 0.652198 0.447570 -0.759963 0.194878 -0.967340 -0.526859 -0.318745 -0.075018 0.441861 0.463812 -0.004192 1.135529 -0.643731 1.009717 0.686536 0.276306 0.573400 -0.218981 1.337138 -0.598672 0.218942 0.682833 -0.091082 0.767710 -0.236257 -0.168191 0.239686 0.557734 0.277456
campaña -0.705482 0.004005 -0.131901 0.685361 0.486286 0.022302 -0.606778 0.363272 -0.194019 -0.015711 -0.152174 -0.950431 0.553106 -0.491820 0.200290 -0.693219 0.611064 -0.029664 -0.188088 -1.052789 0.969669 0.561019 0.382287 -0.689790 0.183435 -0.884231 -0.470798 -0.290860 -0.060239 0.382020 0.424693 0.008226 1.018384 -0.579495 0.900603 0.609892 0.262397 0.497642 -0.203363 1.191997 -0.537164 0.193775 0.614872 -0.080347 0.716335 -0.229294 -0.148425 0.187048 0.476230 0.261530
sido -0.724654 0.005314 -0.140368 0.708730 0.493812 0.019320 -0.603405 0.359627 -0.186929 -0.022302 -0.148065 -0.962097 0.563849 -0.491323 0.201461 -0.712291 0.626509 -0.038099 -0.192124 -1.051749 0.976372 0.585866 0.389741 -0.681848 0.175164 -0.883602 -0.470899 -0.288699 -0.062006 0.378903 0.429275 0.001653 1.033923 -0.597174 0.922306 0.613325 0.250412 0.510596 -0.203464 1.208697 -0.550555 0.197948 0.612870 -0.062875 0.722396 -0.231896 -0.151012 0.205022 0.485772 0.261770
da -0.671670 0.003888 -0.143989 0.649184 0.451007 0.025252 -0.585738 0.346935 -0.176334 -0.001381 -0.134799 -0.880459 0.511156 -0.440712 0.212614 -0.662733 0.595692 -0.039276 -0.179717 -0.965910 0.906160 0.557543 0.375065 -0.652251 0.161939 -0.813864 -0.450137 -0.273797 -0.043969 0.374682 0.408390 -0.006546 0.963244 -0.540054 0.856180 0.584558 0.245713 0.504666 -0.180275 1.140339 -0.510888 0.193363 0.562633 -0.069306 0.657883 -0.202984 -0.145776 0.195880 0.473229 0.228752
claro -0.567887 -0.009257 -0.101402 0.571200 0.403268 0.000661 -0.499850 0.300657 -0.136823 -0.000988 -0.118716 -0.752957 0.424788 -0.392891 0.169347 -0.569822 0.489256 -0.036007 -0.145512 -0.849253 0.762177 0.463409 0.310098 -0.537529 0.145840 -0.692683 -0.381776 -0.235841 -0.048566 0.303793 0.343456 -0.013911 0.828944 -0.463058 0.722322 0.485035 0.201971 0.422917 -0.166742 0.951025 -0.429024 0.177833 0.488773 -0.056990 0.555266 -0.176408 -0.138664 0.176771 0.386474 0.207693
sea -0.661286 -0.004809 -0.122657 0.668012 0.459485 0.019643 -0.584435 0.349445 -0.169703 -0.010979 -0.127790 -0.880509 0.516758 -0.460194 0.193384 -0.654584 0.579982 -0.044780 -0.168799 -0.977967 0.910164 0.553777 0.360959 -0.643588 0.157570 -0.814165 -0.446697 -0.277759 -0.044650 0.379030 0.408212 -0.008148 0.973786 -0.548922 0.854650 0.569088 0.243009 0.493525 -0.174517 1.132434 -0.507509 0.198059 0.565573 -0.068444 0.647066 -0.197679 -0.152502 0.207010 0.476325 0.242699
iu -0.793620 0.002459 -0.169220 0.790153 0.547669 0.018555 -0.710159 0.411768 -0.229214 0.005551 -0.162592 -1.046152 0.622106 -0.528800 0.265657 -0.804155 0.698773 -0.056227 -0.197033 -1.166073 1.083542 0.676077 0.444405 -0.775431 0.209735 -0.981125 -0.543224 -0.307274 -0.065211 0.450698 0.482643 -0.009018 1.151337 -0.662010 1.033962 0.686299 0.291557 0.591224 -0.207688 1.350651 -0.609883 0.222065 0.683409 -0.096056 0.793328 -0.257111 -0.168979 0.239439 0.564951 0.270282
andalucía -0.610179 0.012420 -0.130465 0.594429 0.422489 0.012058 -0.516585 0.313053 -0.174646 0.005533 -0.115111 -0.791556 0.470070 -0.381287 0.203174 -0.600359 0.517329 -0.046312 -0.153517 -0.876345 0.810296 0.513549 0.331657 -0.590855 0.142063 -0.730792 -0.409356 -0.238877 -0.037360 0.333944 0.358944 0.000030 0.879072 -0.497002 0.780261 0.510266 0.225328 0.438107 -0.171258 1.014918 -0.469513 0.168308 0.501960 -0.064515 0.597434 -0.192974 -0.127642 0.169045 0.424579 0.211988
decir -0.556793 -0.006718 -0.117429 0.557852 0.397621 0.018695 -0.494318 0.295005 -0.156235 0.005457 -0.114223 -0.734291 0.429641 -0.370752 0.179385 -0.562864 0.487646 -0.025349 -0.139514 -0.815112 0.749521 0.460537 0.308995 -0.546413 0.137241 -0.674156 -0.384902 -0.230286 -0.036785 0.321946 0.345009 -0.013571 0.812936 -0.454696 0.730509 0.490123 0.201316 0.431733 -0.159143 0.954107 -0.421045 0.174994 0.474285 -0.048738 0.539725 -0.168172 -0.121854 0.181856 0.386708 0.192488
buen -0.638685 -0.001632 -0.121267 0.630862 0.452659 0.036174 -0.553080 0.322036 -0.163613 -0.012188 -0.119590 -0.862202 0.501967 -0.474713 0.178995 -0.627838 0.552285 -0.036764 -0.190466 -0.967356 0.874126 0.516894 0.354171 -0.612864 0.164343 -0.803201 -0.404589 -0.265753 -0.075805 0.347554 0.384630 0.007356 0.939035 -0.526972 0.838406 0.535941 0.228934 0.464795 -0.188368 1.107860 -0.503891 0.182292 0.553082 -0.061987 0.638704 -0.211335 -0.146060 0.181313 0.433148 0.258418
#votapp -0.725417 0.014890 -0.145015 0.744124 0.519348 0.031855 -0.647197 0.385611 -0.212507 0.004025 -0.155421 -1.003270 0.573524 -0.482546 0.248291 -0.719743 0.647277 -0.039264 -0.207069 -1.067914 0.998017 0.632399 0.416383 -0.722789 0.180781 -0.912558 -0.499746 -0.292603 -0.064173 0.419351 0.440902 -0.013315 1.080226 -0.618093 0.948745 0.650058 0.284781 0.544520 -0.210492 1.259694 -0.577554 0.205085 0.639355 -0.078584 0.730879 -0.224282 -0.163799 0.200521 0.524785 0.263490
cambio -0.738658 -0.001856 -0.152393 0.737830 0.524338 0.027344 -0.638205 0.375321 -0.212906 -0.010190 -0.147279 -0.988627 0.574430 -0.497816 0.229056 -0.741689 0.641642 -0.044023 -0.193051 -1.101693 1.008676 0.626665 0.407428 -0.717025 0.174420 -0.923677 -0.504542 -0.294218 -0.069234 0.398902 0.438674 -0.005584 1.074293 -0.624582 0.975516 0.631918 0.269863 0.548303 -0.209437 1.277923 -0.576868 0.214059 0.640062 -0.075723 0.731694 -0.236475 -0.164400 0.216042 0.509432 0.270104
programa -0.623034 0.009831 -0.119172 0.613585 0.428623 0.010784 -0.542941 0.329486 -0.170222 0.010678 -0.121731 -0.838498 0.490408 -0.414059 0.177048 -0.619007 0.560006 -0.044812 -0.163947 -0.928660 0.856271 0.523944 0.342703 -0.598871 0.142480 -0.769604 -0.414321 -0.253638 -0.044752 0.337991 0.374940 -0.007671 0.918164 -0.515741 0.810032 0.541196 0.238257 0.467187 -0.178121 1.060244 -0.477792 0.177481 0.535675 -0.075237 0.626836 -0.195469 -0.150729 0.191130 0.439562 0.230221
sólo -0.666655 0.011860 -0.128909 0.657921 0.472247 0.020370 -0.569471 0.339888 -0.169869 -0.011700 -0.141544 -0.882978 0.507991 -0.446788 0.206297 -0.660551 0.574562 -0.035302 -0.172808 -0.972911 0.903164 0.540906 0.351427 -0.636009 0.170268 -0.810871 -0.448986 -0.268875 -0.062532 0.354289 0.401948 -0.005134 0.963059 -0.548543 0.856418 0.577115 0.231140 0.489891 -0.172561 1.121079 -0.505801 0.189671 0.577850 -0.066282 0.666857 -0.197070 -0.140370 0.201879 0.464067 0.242341
ayer -0.648439 0.016304 -0.119692 0.630344 0.441879 0.019832 -0.540288 0.332440 -0.188226 -0.013638 -0.133437 -0.859671 0.494128 -0.436691 0.199951 -0.638848 0.550097 -0.028445 -0.183530 -0.945454 0.872882 0.524146 0.349105 -0.621322 0.157195 -0.784605 -0.419264 -0.259439 -0.043890 0.334159 0.374935 -0.011404 0.920001 -0.537519 0.818764 0.556179 0.224261 0.463238 -0.177978 1.081030 -0.501545 0.184682 0.542391 -0.057118 0.634767 -0.206824 -0.132004 0.194149 0.431046 0.230101
gusta -0.554656 0.003172 -0.095239 0.533064 0.366083 0.008713 -0.459481 0.286197 -0.145825 -0.001966 -0.113805 -0.719183 0.420937 -0.367155 0.166510 -0.539449 0.476695 -0.022924 -0.137340 -0.809606 0.738016 0.450513 0.293635 -0.517382 0.136865 -0.683760 -0.376428 -0.221210 -0.053096 0.305965 0.319366 -0.001867 0.798144 -0.450778 0.711412 0.461574 0.185013 0.394405 -0.159451 0.912907 -0.408764 0.156551 0.467566 -0.055485 0.531437 -0.175160 -0.130188 0.166224 0.378337 0.201542
tiempo -0.610816 0.002510 -0.111038 0.588226 0.427907 0.020723 -0.524676 0.310022 -0.155805 -0.010025 -0.121711 -0.817204 0.465858 -0.421297 0.186985 -0.607868 0.523535 -0.043484 -0.163116 -0.888784 0.818831 0.492655 0.327694 -0.573123 0.154367 -0.733858 -0.414741 -0.239056 -0.058175 0.318613 0.368781 0.003503 0.879550 -0.496080 0.782691 0.519468 0.221886 0.450387 -0.177081 1.024315 -0.472646 0.163895 0.510111 -0.049456 0.602105 -0.193173 -0.127437 0.181775 0.420239 0.215745
muchas -0.524387 0.003533 -0.091930 0.518893 0.344830 0.042528 -0.444400 0.272116 -0.125864 -0.021214 -0.111747 -0.711351 0.401889 -0.386117 0.131190 -0.528838 0.472188 -0.025989 -0.145315 -0.794897 0.709179 0.383881 0.289669 -0.498035 0.122152 -0.663798 -0.326350 -0.210014 -0.085242 0.255865 0.328666 -0.007538 0.738630 -0.435270 0.676895 0.430356 0.189730 0.363319 -0.159022 0.880571 -0.416063 0.147686 0.458238 -0.055177 0.524472 -0.195508 -0.135483 0.143581 0.347657 0.204415
#nomeolvido -0.719885 0.016044 -0.148171 0.696208 0.488039 0.031308 -0.604851 0.350698 -0.198359 -0.009904 -0.130682 -0.945779 0.558273 -0.490776 0.208521 -0.714160 0.624269 -0.029345 -0.200071 -1.051987 0.961320 0.590621 0.393504 -0.686378 0.170549 -0.879427 -0.485150 -0.283280 -0.064691 0.386625 0.421598 -0.010166 1.034659 -0.596983 0.915688 0.611326 0.261295 0.524804 -0.180471 1.207057 -0.544702 0.206352 0.618822 -0.070224 0.700121 -0.215524 -0.169667 0.198216 0.489137 0.255436
tener -0.747996 -0.008345 -0.156563 0.746112 0.525559 0.015844 -0.648696 0.377831 -0.199165 -0.004152 -0.146551 -1.003335 0.587210 -0.513182 0.225477 -0.748328 0.661601 -0.047097 -0.200804 -1.114880 1.013453 0.630582 0.421775 -0.725106 0.174583 -0.929309 -0.514619 -0.307378 -0.054306 0.426301 0.457470 -0.012560 1.094046 -0.616729 0.984209 0.647771 0.264212 0.564662 -0.202213 1.287191 -0.589041 0.209718 0.644861 -0.070146 0.734501 -0.228564 -0.177385 0.221570 0.516493 0.274095
tanto -0.655122 -0.004363 -0.117115 0.658200 0.448450 0.026249 -0.552500 0.327460 -0.164326 -0.002386 -0.127941 -0.875134 0.504681 -0.443947 0.197933 -0.641609 0.569764 -0.036704 -0.182045 -0.974087 0.895967 0.538520 0.364098 -0.625016 0.158621 -0.794844 -0.430018 -0.265179 -0.069451 0.356200 0.401727 0.004255 0.959780 -0.549487 0.840371 0.559384 0.240302 0.475352 -0.176790 1.103314 -0.504390 0.194643 0.557395 -0.055206 0.645579 -0.214278 -0.136412 0.203145 0.449544 0.236183
casa -0.720816 -0.001235 -0.136135 0.703588 0.503351 0.020441 -0.623733 0.361206 -0.210981 -0.001320 -0.133880 -0.965923 0.562358 -0.501185 0.231996 -0.714181 0.634869 -0.052466 -0.194723 -1.069621 0.993611 0.616972 0.394466 -0.710451 0.188941 -0.890534 -0.484361 -0.315752 -0.049040 0.390137 0.423989 -0.011670 1.060094 -0.603079 0.938472 0.612961 0.270659 0.530063 -0.195862 1.244514 -0.554739 0.188664 0.633078 -0.056724 0.736625 -0.217873 -0.152745 0.212793 0.501662 0.260750
derechos -0.615512 0.007145 -0.117381 0.611771 0.423753 0.011867 -0.520362 0.323005 -0.172499 -0.003771 -0.113724 -0.825474 0.472807 -0.406179 0.195811 -0.614465 0.541118 -0.037824 -0.156532 -0.892237 0.845028 0.507922 0.338665 -0.600080 0.151194 -0.756488 -0.408181 -0.242233 -0.048924 0.331548 0.354468 0.002108 0.881345 -0.504490 0.800058 0.531814 0.221638 0.455489 -0.156211 1.047989 -0.478011 0.172762 0.527886 -0.063095 0.595999 -0.195101 -0.135650 0.171499 0.431837 0.225995
estamos -0.586129 0.008079 -0.120996 0.575272 0.409668 0.018327 -0.502764 0.303405 -0.156313 0.004630 -0.120355 -0.797408 0.456301 -0.414874 0.183583 -0.586561 0.521135 -0.037096 -0.155049 -0.868861 0.801136 0.473934 0.315831 -0.566176 0.135731 -0.729464 -0.398937 -0.243552 -0.047793 0.318175 0.347306 -0.017229 0.853689 -0.491087 0.759510 0.510196 0.211388 0.429448 -0.157785 0.987529 -0.451049 0.166276 0.516069 -0.059157 0.583033 -0.181480 -0.122125 0.178572 0.386801 0.212282
hecho -0.618077 0.014369 -0.123192 0.614978 0.439621 0.012959 -0.541657 0.317264 -0.164746 -0.013664 -0.134667 -0.847692 0.480150 -0.436815 0.183469 -0.617954 0.558424 -0.042782 -0.157280 -0.921654 0.842881 0.500760 0.332568 -0.609463 0.142739 -0.762059 -0.416494 -0.261693 -0.054187 0.326410 0.363164 -0.001710 0.908179 -0.525111 0.808411 0.531491 0.228011 0.453518 -0.180064 1.057901 -0.478469 0.186655 0.532280 -0.077387 0.615239 -0.207787 -0.131167 0.171054 0.434336 0.221431
semana -0.800336 0.013682 -0.136652 0.765570 0.569272 0.047644 -0.669905 0.388201 -0.237137 -0.021013 -0.139884 -1.076875 0.641452 -0.554033 0.248377 -0.777023 0.682914 -0.046006 -0.234777 -1.179616 1.088453 0.678148 0.415515 -0.761133 0.197699 -0.997925 -0.517275 -0.360774 -0.056456 0.438939 0.480023 -0.002927 1.149206 -0.652115 1.033827 0.689317 0.282950 0.567457 -0.224120 1.370832 -0.618552 0.194615 0.685373 -0.059896 0.807926 -0.245135 -0.146882 0.209771 0.532256 0.298103
foto -0.625236 0.011064 -0.124058 0.591886 0.430448 0.025475 -0.519834 0.312920 -0.155780 0.003114 -0.121486 -0.811390 0.477749 -0.435899 0.179252 -0.608814 0.541446 -0.025769 -0.160698 -0.911631 0.814903 0.503819 0.332812 -0.579828 0.149428 -0.770612 -0.394501 -0.251433 -0.051018 0.335002 0.369664 0.003211 0.886481 -0.513424 0.780066 0.517889 0.220025 0.436374 -0.177190 1.037516 -0.471059 0.174175 0.529337 -0.068096 0.606101 -0.204255 -0.130613 0.173229 0.419792 0.220591
tenemos -0.650202 0.006420 -0.131073 0.643646 0.453728 0.024453 -0.552141 0.330429 -0.183151 0.006867 -0.124337 -0.883465 0.496998 -0.442320 0.195019 -0.640396 0.573688 -0.033848 -0.183901 -0.970177 0.887516 0.529501 0.357850 -0.626860 0.154928 -0.801469 -0.438310 -0.264109 -0.068243 0.345429 0.378827 -0.006354 0.939951 -0.538378 0.837584 0.546796 0.229094 0.466207 -0.180301 1.111629 -0.499234 0.180609 0.564028 -0.059966 0.645840 -0.202126 -0.145568 0.186307 0.439731 0.237353
primera -0.624238 0.012670 -0.119495 0.618453 0.437385 0.017282 -0.543963 0.327859 -0.177164 -0.004877 -0.111580 -0.831484 0.489966 -0.434358 0.190733 -0.630440 0.556674 -0.046740 -0.167053 -0.905589 0.843313 0.519949 0.349336 -0.616036 0.143560 -0.776888 -0.419466 -0.252802 -0.039628 0.333977 0.370258 -0.014616 0.898909 -0.512742 0.808545 0.544643 0.221612 0.456790 -0.157708 1.063440 -0.471854 0.172042 0.540252 -0.067330 0.609259 -0.206650 -0.145106 0.184016 0.429772 0.219511
buena -0.599840 0.007421 -0.117205 0.600609 0.416322 0.034498 -0.506913 0.305946 -0.167115 -0.017181 -0.118649 -0.814210 0.457096 -0.429152 0.178247 -0.600075 0.520771 -0.030977 -0.154048 -0.893580 0.822694 0.478894 0.323960 -0.571550 0.151068 -0.742745 -0.396170 -0.242978 -0.048935 0.329330 0.355306 -0.004354 0.861950 -0.502077 0.785042 0.507223 0.208683 0.446118 -0.161296 1.028035 -0.466454 0.169568 0.512150 -0.069988 0.600625 -0.192871 -0.142547 0.169163 0.400569 0.229632
noches -0.574346 0.071692 -0.115605 0.627975 0.368727 0.041211 -0.460257 0.297383 -0.182857 -0.062233 -0.082635 -0.766354 0.471452 -0.489002 0.180865 -0.516796 0.557809 -0.007088 -0.172292 -0.867623 0.817030 0.465411 0.322960 -0.574561 0.104982 -0.706366 -0.429735 -0.239065 -0.012127 0.352595 0.323463 0.076969 0.838934 -0.444494 0.797294 0.532701 0.197782 0.361785 -0.158299 1.034515 -0.466818 0.170266 0.494701 -0.100128 0.642357 -0.178888 -0.163871 0.098698 0.348090 0.231692
cont -0.524631 0.013483 -0.095073 0.505804 0.363885 0.022728 -0.441256 0.258551 -0.119901 -0.005431 -0.126584 -0.713601 0.396201 -0.373097 0.142058 -0.537918 0.461865 -0.029809 -0.124228 -0.788798 0.696534 0.388954 0.285746 -0.496433 0.120027 -0.663337 -0.341005 -0.205082 -0.080798 0.263254 0.330126 0.001428 0.744129 -0.453047 0.661196 0.426153 0.181673 0.359156 -0.140448 0.874821 -0.413285 0.135783 0.454398 -0.073392 0.521831 -0.189464 -0.115114 0.166361 0.351481 0.195331
empleo -0.751455 0.009053 -0.158867 0.759946 0.528304 0.023089 -0.652410 0.376299 -0.225342 -0.008071 -0.148005 -1.005083 0.606327 -0.509181 0.235242 -0.754138 0.670079 -0.039956 -0.220149 -1.111040 1.040061 0.658416 0.419270 -0.732934 0.194735 -0.940553 -0.517751 -0.299371 -0.051297 0.433853 0.467436 -0.010091 1.104413 -0.623968 0.983709 0.659547 0.280532 0.560478 -0.195394 1.301579 -0.597933 0.217277 0.654665 -0.067309 0.754179 -0.241856 -0.172739 0.215858 0.546525 0.267929
después -0.637707 -0.003925 -0.136924 0.655458 0.447183 0.016441 -0.565308 0.324315 -0.191695 -0.012138 -0.122674 -0.878810 0.506179 -0.429266 0.202110 -0.647493 0.569795 -0.054961 -0.187207 -0.964133 0.903599 0.553288 0.343691 -0.627780 0.173929 -0.787263 -0.442182 -0.269059 -0.052396 0.358225 0.387501 -0.008680 0.955340 -0.535013 0.841246 0.566620 0.229592 0.476325 -0.173307 1.107925 -0.503979 0.192714 0.552743 -0.058499 0.637319 -0.202027 -0.137039 0.177401 0.442072 0.220557
era -0.725624 0.007709 -0.138947 0.720062 0.517574 0.008257 -0.631100 0.366677 -0.205373 -0.014907 -0.140195 -0.980816 0.574447 -0.495441 0.235747 -0.726533 0.643001 -0.049967 -0.203352 -1.065683 0.994362 0.603940 0.395606 -0.702758 0.184168 -0.898405 -0.495266 -0.299540 -0.045567 0.399737 0.437758 -0.015350 1.056777 -0.610766 0.947605 0.627819 0.271565 0.533990 -0.190870 1.244451 -0.557003 0.216008 0.624878 -0.066758 0.711882 -0.226176 -0.161309 0.219713 0.513778 0.255608
déficit -0.604511 -0.002148 -0.131808 0.580550 0.406195 0.005229 -0.523635 0.316758 -0.166019 -0.009278 -0.107346 -0.784279 0.460421 -0.377123 0.199668 -0.594072 0.513059 -0.048408 -0.163461 -0.847478 0.818768 0.523792 0.331196 -0.581787 0.157456 -0.733004 -0.398871 -0.235128 -0.023313 0.340161 0.349745 -0.000868 0.855674 -0.493556 0.760619 0.516262 0.230615 0.455714 -0.160610 1.012866 -0.458125 0.161131 0.495254 -0.066292 0.575670 -0.179480 -0.140139 0.176784 0.424645 0.204908
poder -0.665205 0.002612 -0.126750 0.644212 0.454459 0.015420 -0.577944 0.327138 -0.188248 -0.005446 -0.130267 -0.880475 0.515169 -0.450602 0.200163 -0.648954 0.568354 -0.034116 -0.178878 -0.975024 0.898094 0.557811 0.361867 -0.638933 0.156451 -0.800911 -0.453645 -0.265673 -0.045748 0.362173 0.393930 -0.001052 0.953803 -0.550732 0.860422 0.570338 0.240831 0.483449 -0.180123 1.132275 -0.510164 0.185012 0.571230 -0.062092 0.650854 -0.199982 -0.136209 0.198156 0.451595 0.244193
nunca -0.592508 0.001918 -0.122128 0.570859 0.413270 0.019475 -0.501182 0.288598 -0.154514 -0.006241 -0.126442 -0.790240 0.444198 -0.408887 0.183275 -0.594338 0.507147 -0.020368 -0.167236 -0.873423 0.793250 0.470166 0.320787 -0.567496 0.130826 -0.720681 -0.386179 -0.244038 -0.045120 0.317643 0.347622 -0.003434 0.851249 -0.483978 0.765431 0.506337 0.207900 0.423907 -0.156356 0.994529 -0.456638 0.172710 0.511115 -0.054784 0.582991 -0.189313 -0.128363 0.185165 0.395919 0.226936
van -0.594614 0.002867 -0.127145 0.592588 0.421456 0.027424 -0.524022 0.318564 -0.150773 0.005158 -0.120340 -0.802655 0.465235 -0.398670 0.183705 -0.588285 0.527324 -0.027262 -0.159247 -0.874946 0.812863 0.488643 0.336055 -0.583045 0.150319 -0.735179 -0.411078 -0.231335 -0.057429 0.330385 0.351393 -0.016784 0.864115 -0.493621 0.770701 0.511103 0.214396 0.434170 -0.157025 1.015317 -0.451894 0.178770 0.520870 -0.061859 0.577007 -0.184651 -0.135278 0.183612 0.405435 0.214249
tras -0.756405 0.017665 -0.163071 0.750641 0.525603 0.023395 -0.657471 0.388421 -0.213040 -0.007419 -0.142387 -1.032887 0.588940 -0.520904 0.228034 -0.762492 0.673502 -0.051218 -0.217580 -1.124855 1.039541 0.634583 0.415232 -0.756837 0.192465 -0.943598 -0.505420 -0.316300 -0.061721 0.410001 0.454191 -0.007147 1.114370 -0.640216 0.983895 0.647396 0.277560 0.555298 -0.216132 1.305653 -0.588675 0.214222 0.652140 -0.068001 0.754951 -0.241637 -0.172208 0.218295 0.522190 0.267001
abrazo -0.619316 0.015134 -0.123212 0.607690 0.410390 0.041090 -0.505825 0.322263 -0.146885 -0.009693 -0.127654 -0.835742 0.458945 -0.451484 0.157636 -0.608988 0.537667 -0.020070 -0.158925 -0.918709 0.819041 0.470672 0.343700 -0.589608 0.136206 -0.764296 -0.400544 -0.258151 -0.087159 0.319103 0.368747 0.002788 0.889544 -0.502081 0.776997 0.514127 0.202449 0.436505 -0.168972 1.034060 -0.485467 0.166690 0.524597 -0.066356 0.618292 -0.209645 -0.138620 0.187115 0.412498 0.248984
alguien -0.692460 -0.000643 -0.132277 0.682657 0.470171 0.008480 -0.590892 0.351475 -0.181318 -0.012513 -0.128729 -0.923194 0.535337 -0.468885 0.198524 -0.672724 0.605962 -0.037883 -0.194149 -1.013936 0.920045 0.558274 0.383905 -0.660696 0.173040 -0.836420 -0.467209 -0.286534 -0.060423 0.369212 0.415233 -0.007860 0.994139 -0.573657 0.896584 0.595384 0.254353 0.510110 -0.189427 1.171079 -0.526495 0.197364 0.588212 -0.075011 0.687434 -0.222925 -0.160849 0.218277 0.481407 0.254743
horas -0.694617 0.011205 -0.124270 0.664005 0.487943 0.029027 -0.582716 0.339975 -0.191831 -0.016980 -0.136646 -0.909984 0.524096 -0.472039 0.202525 -0.668288 0.606437 -0.037667 -0.188935 -1.006942 0.939369 0.575969 0.365373 -0.666612 0.160386 -0.837973 -0.461073 -0.292378 -0.053648 0.380387 0.395076 -0.007227 0.988705 -0.562026 0.876833 0.592870 0.237963 0.498289 -0.183951 1.161620 -0.530564 0.198910 0.593360 -0.077145 0.672770 -0.205610 -0.150251 0.200642 0.470787 0.266710
sevilla -0.668985 0.016947 -0.140740 0.665790 0.478531 0.016074 -0.577457 0.351080 -0.182281 -0.004797 -0.131048 -0.910923 0.536905 -0.459346 0.212195 -0.663494 0.593723 -0.042598 -0.191185 -1.000098 0.919738 0.551328 0.376829 -0.666182 0.155813 -0.846758 -0.452309 -0.274670 -0.047794 0.356587 0.409915 -0.001677 0.979881 -0.554998 0.875520 0.577435 0.235102 0.500901 -0.179227 1.160898 -0.531991 0.177179 0.582866 -0.073844 0.677936 -0.214174 -0.154947 0.184145 0.455356 0.246666
#elcambioandaluz -0.569491 0.013628 -0.118777 0.571247 0.404956 0.032420 -0.501861 0.283257 -0.162009 -0.001635 -0.127031 -0.780370 0.442054 -0.395309 0.179527 -0.565689 0.502091 -0.023376 -0.151824 -0.853159 0.787631 0.463780 0.322165 -0.560552 0.128513 -0.711873 -0.380837 -0.243186 -0.056004 0.317442 0.343040 0.000292 0.841512 -0.471116 0.749007 0.478490 0.210918 0.424796 -0.156569 0.980308 -0.457617 0.147136 0.503127 -0.053923 0.573500 -0.174333 -0.133305 0.156682 0.405041 0.215886
chacón -0.679964 0.011450 -0.139784 0.658434 0.463078 0.020748 -0.577438 0.342666 -0.188230 -0.003483 -0.129304 -0.907971 0.533968 -0.438169 0.214065 -0.671352 0.589250 -0.032541 -0.172373 -0.998251 0.929123 0.576818 0.380607 -0.654928 0.162521 -0.823653 -0.466358 -0.282015 -0.055354 0.377716 0.413548 -0.011924 0.975507 -0.568806 0.871993 0.592164 0.260469 0.510980 -0.184159 1.150495 -0.518687 0.183006 0.573157 -0.071776 0.659617 -0.201213 -0.144410 0.207875 0.473136 0.239665
elecciones -0.592800 0.012267 -0.112321 0.602829 0.408805 0.007533 -0.523068 0.304567 -0.177922 0.002713 -0.125077 -0.803227 0.471482 -0.412435 0.180797 -0.586395 0.527933 -0.029992 -0.154000 -0.891053 0.816051 0.507752 0.331633 -0.572546 0.155071 -0.744750 -0.415210 -0.243784 -0.056674 0.325631 0.360695 -0.009223 0.877320 -0.487270 0.790823 0.525429 0.228970 0.434911 -0.163861 1.032020 -0.465507 0.172796 0.510027 -0.052206 0.589191 -0.188547 -0.123387 0.181025 0.421928 0.220806
#ff -0.383386 0.021585 -0.055929 0.377726 0.270018 0.031465 -0.317307 0.184726 -0.076588 -0.018192 -0.095439 -0.521445 0.285443 -0.295095 0.086134 -0.372250 0.327474 0.001689 -0.086818 -0.595683 0.498022 0.268228 0.191603 -0.363420 0.091940 -0.484121 -0.231442 -0.171900 -0.070159 0.189671 0.220944 -0.003233 0.525669 -0.324589 0.467368 0.308092 0.114139 0.258961 -0.097782 0.631698 -0.300027 0.088679 0.326759 -0.057006 0.370550 -0.126328 -0.088923 0.107984 0.242911 0.156660
muchos -0.616807 -0.001616 -0.125362 0.605039 0.432943 0.010035 -0.518330 0.303136 -0.170839 -0.013590 -0.117881 -0.827013 0.473735 -0.428502 0.192887 -0.605578 0.526320 -0.046851 -0.171044 -0.922141 0.834588 0.493165 0.321678 -0.579448 0.147335 -0.761605 -0.410263 -0.255736 -0.051853 0.341324 0.367287 0.008459 0.889721 -0.497996 0.796494 0.523796 0.220490 0.450456 -0.183357 1.035158 -0.468959 0.180173 0.534444 -0.075228 0.607672 -0.191671 -0.143942 0.171991 0.414936 0.222779
ministro -0.703164 0.000309 -0.144640 0.694223 0.485378 0.025107 -0.619109 0.349950 -0.200600 -0.005813 -0.127563 -0.947447 0.552869 -0.479971 0.230011 -0.685349 0.610426 -0.041508 -0.189994 -1.017109 0.954203 0.600491 0.381926 -0.675751 0.174114 -0.861667 -0.489024 -0.277440 -0.041057 0.382043 0.416313 -0.005273 1.027116 -0.573657 0.921409 0.616400 0.261250 0.525880 -0.192005 1.207760 -0.547414 0.188710 0.595481 -0.059147 0.686828 -0.214324 -0.143446 0.213290 0.499588 0.253911
final -0.598861 0.000461 -0.109657 0.580527 0.413167 0.016568 -0.513976 0.284870 -0.170567 -0.013710 -0.103713 -0.795595 0.461555 -0.412841 0.185510 -0.575388 0.505130 -0.034781 -0.162787 -0.859097 0.800661 0.497141 0.324205 -0.557555 0.149390 -0.731584 -0.380984 -0.242219 -0.057987 0.309789 0.356399 0.004652 0.851108 -0.475225 0.763195 0.492754 0.207704 0.417202 -0.168836 1.010990 -0.453933 0.151622 0.511584 -0.062226 0.585804 -0.193186 -0.131710 0.158776 0.394061 0.222412
luego -0.624591 0.005028 -0.119550 0.623679 0.431297 0.019215 -0.547394 0.315973 -0.168071 -0.003740 -0.126935 -0.826015 0.481067 -0.443974 0.182280 -0.628601 0.554304 -0.018625 -0.169510 -0.930597 0.856104 0.503805 0.338526 -0.604110 0.156581 -0.770981 -0.411344 -0.261639 -0.059204 0.349264 0.375204 -0.007942 0.896402 -0.517909 0.798985 0.529864 0.222996 0.452561 -0.177545 1.055111 -0.482011 0.184619 0.540947 -0.073716 0.612818 -0.196823 -0.132364 0.182643 0.430706 0.241289
toda -0.617453 0.011972 -0.130175 0.611552 0.433915 0.018790 -0.530989 0.315802 -0.183640 0.000827 -0.127898 -0.814822 0.475562 -0.428726 0.178981 -0.609094 0.527807 -0.034161 -0.168433 -0.902855 0.838289 0.514019 0.346577 -0.604481 0.142993 -0.748939 -0.416154 -0.250025 -0.042996 0.326430 0.356055 -0.000616 0.889667 -0.506276 0.801240 0.520620 0.224570 0.441860 -0.163638 1.056826 -0.484922 0.165268 0.533024 -0.058147 0.609560 -0.193672 -0.140022 0.173490 0.433538 0.230775
pide -0.680623 0.016185 -0.132453 0.674257 0.474658 0.011030 -0.604645 0.351469 -0.192394 0.007686 -0.139783 -0.903423 0.543477 -0.452761 0.212321 -0.675484 0.607290 -0.040982 -0.190529 -0.987462 0.922703 0.581824 0.367902 -0.674877 0.166618 -0.842704 -0.462584 -0.265639 -0.057167 0.368298 0.418079 -0.012083 0.996103 -0.565738 0.894528 0.586836 0.248429 0.496167 -0.171617 1.162103 -0.534070 0.181220 0.582087 -0.067878 0.680887 -0.209679 -0.157922 0.196420 0.483531 0.232559
tienen -0.669461 0.000817 -0.118524 0.643273 0.447364 0.021679 -0.563475 0.343553 -0.182756 0.001056 -0.118322 -0.878915 0.522817 -0.456647 0.218459 -0.660207 0.590280 -0.024620 -0.168466 -0.968344 0.881163 0.558339 0.350006 -0.632165 0.155408 -0.821326 -0.445242 -0.267194 -0.055218 0.368176 0.382521 -0.006716 0.950378 -0.542326 0.859235 0.569556 0.228584 0.487291 -0.169583 1.115953 -0.506091 0.175677 0.562808 -0.071757 0.645472 -0.200502 -0.145732 0.201343 0.445036 0.241672
personas -0.591969 0.000532 -0.125617 0.572400 0.409497 0.029072 -0.493273 0.290755 -0.147778 -0.011589 -0.111673 -0.777565 0.444273 -0.391679 0.166784 -0.585724 0.495592 -0.033155 -0.152120 -0.860448 0.786720 0.467194 0.327633 -0.562459 0.150349 -0.723668 -0.377890 -0.239893 -0.043738 0.309345 0.343606 -0.001236 0.833039 -0.475274 0.748747 0.493970 0.205351 0.421485 -0.169276 0.978914 -0.461341 0.161644 0.500800 -0.067759 0.574687 -0.179942 -0.135365 0.157099 0.412409 0.216579
i -0.589311 -0.000204 -0.120884 0.572560 0.402167 0.025428 -0.508786 0.284078 -0.150240 -0.008639 -0.114344 -0.769776 0.450319 -0.405979 0.172501 -0.574790 0.511213 -0.029878 -0.153792 -0.853404 0.774137 0.478446 0.318753 -0.557226 0.145735 -0.705802 -0.385362 -0.235816 -0.063429 0.312912 0.355887 -0.005360 0.839695 -0.481334 0.744564 0.486999 0.197290 0.428274 -0.147746 0.975352 -0.447282 0.154227 0.498801 -0.074160 0.575021 -0.176410 -0.136174 0.166185 0.389458 0.211846
nueva -0.606587 0.006278 -0.114013 0.590057 0.420808 0.015181 -0.527656 0.297071 -0.172620 -0.005602 -0.122810 -0.816033 0.472651 -0.407390 0.186855 -0.610077 0.540333 -0.043500 -0.166393 -0.906193 0.828465 0.504780 0.331048 -0.586784 0.152932 -0.760794 -0.407839 -0.257344 -0.046570 0.328511 0.374058 0.000579 0.872934 -0.513635 0.784819 0.527872 0.216238 0.435110 -0.173761 1.037813 -0.479652 0.176383 0.529225 -0.069153 0.606759 -0.184733 -0.138705 0.172335 0.419865 0.212794
falta -0.521036 0.002127 -0.097643 0.512316 0.359660 0.013438 -0.442689 0.280854 -0.136263 0.007505 -0.099874 -0.685947 0.389621 -0.348887 0.158219 -0.513040 0.457473 -0.040309 -0.139228 -0.757216 0.711253 0.438702 0.279467 -0.502678 0.129573 -0.643114 -0.342940 -0.202190 -0.038332 0.292590 0.323786 -0.009922 0.760623 -0.424535 0.661668 0.446272 0.179549 0.392130 -0.149574 0.879183 -0.394882 0.153412 0.453906 -0.062084 0.503207 -0.150456 -0.113943 0.154380 0.355016 0.175250
nadie -0.588144 -0.004855 -0.105021 0.574082 0.410443 0.013952 -0.504833 0.305599 -0.155495 -0.011991 -0.118088 -0.782375 0.443552 -0.389863 0.189844 -0.572546 0.507783 -0.030550 -0.160224 -0.854292 0.800115 0.479468 0.324895 -0.548608 0.135274 -0.712863 -0.388119 -0.237908 -0.047613 0.312498 0.350859 -0.007416 0.841776 -0.471897 0.759836 0.492697 0.223836 0.438772 -0.170243 0.987575 -0.458605 0.172647 0.498679 -0.051008 0.562413 -0.180530 -0.123982 0.177155 0.407525 0.214253
educación -0.715912 0.015823 -0.136379 0.696938 0.502503 0.030552 -0.627662 0.355947 -0.216626 0.002534 -0.134073 -0.963234 0.567663 -0.476638 0.228093 -0.701468 0.618731 -0.045358 -0.206620 -1.040480 0.969583 0.605306 0.404169 -0.690069 0.170848 -0.886527 -0.490697 -0.282419 -0.061890 0.407249 0.432007 -0.005666 1.026127 -0.601920 0.937635 0.605841 0.262995 0.531539 -0.200990 1.208931 -0.553952 0.193244 0.608067 -0.064845 0.702582 -0.220381 -0.153705 0.197287 0.508562 0.247501
electoral -0.672770 -0.005677 -0.140075 0.660424 0.476438 0.010520 -0.585800 0.336705 -0.191500 -0.010883 -0.137500 -0.894793 0.527948 -0.456860 0.194805 -0.670197 0.594368 -0.029091 -0.188446 -0.985054 0.908685 0.549093 0.374086 -0.642884 0.177352 -0.819760 -0.450985 -0.276213 -0.043740 0.354987 0.396258 0.002326 0.975823 -0.550173 0.862245 0.569622 0.236413 0.505143 -0.182439 1.133299 -0.514090 0.181939 0.569240 -0.082762 0.665212 -0.201674 -0.155480 0.186647 0.464770 0.242819
euros -0.680231 0.013775 -0.139665 0.678652 0.461904 0.026446 -0.597881 0.347713 -0.189475 -0.007717 -0.127991 -0.917669 0.538734 -0.447788 0.209422 -0.684083 0.581944 -0.031925 -0.193907 -0.985192 0.937114 0.559523 0.384998 -0.658939 0.169534 -0.830431 -0.454811 -0.281814 -0.057088 0.375542 0.402329 0.003824 0.982722 -0.569294 0.874161 0.582166 0.242777 0.498885 -0.180727 1.168203 -0.533782 0.200424 0.591109 -0.060713 0.660847 -0.206103 -0.159407 0.190707 0.490431 0.238627
recortes -0.636691 0.003132 -0.143224 0.638320 0.433029 0.022249 -0.555122 0.323090 -0.191901 0.004153 -0.116167 -0.856490 0.496428 -0.433991 0.209247 -0.640923 0.554621 -0.037668 -0.166119 -0.930498 0.877930 0.539365 0.355259 -0.631230 0.163195 -0.785364 -0.434002 -0.257762 -0.046350 0.364522 0.388142 0.001076 0.924272 -0.533416 0.841432 0.547543 0.246285 0.469161 -0.163437 1.097640 -0.487768 0.177054 0.547826 -0.062132 0.620069 -0.188755 -0.145502 0.190665 0.458691 0.222781
público -0.686412 0.005082 -0.135342 0.669035 0.468175 0.017958 -0.599957 0.342737 -0.200711 0.004050 -0.145924 -0.910791 0.537306 -0.465882 0.220527 -0.685965 0.601319 -0.047115 -0.195379 -1.001716 0.938056 0.567809 0.368919 -0.676340 0.161325 -0.838779 -0.456977 -0.284836 -0.048683 0.374496 0.422011 -0.008125 1.002714 -0.570673 0.896233 0.583017 0.237152 0.511562 -0.197198 1.164237 -0.534088 0.192713 0.596028 -0.065029 0.678041 -0.202612 -0.146926 0.198434 0.475865 0.235875
amigos -0.551628 0.003616 -0.098675 0.550994 0.379906 0.020338 -0.465122 0.282188 -0.167010 -0.015493 -0.106007 -0.767394 0.439061 -0.396031 0.171536 -0.547881 0.486647 -0.021762 -0.157031 -0.846916 0.776578 0.460754 0.294007 -0.529016 0.134965 -0.689711 -0.370126 -0.231744 -0.060320 0.297903 0.339490 0.005124 0.814951 -0.450108 0.740839 0.469500 0.194142 0.386702 -0.146881 0.967615 -0.425240 0.157305 0.476158 -0.047497 0.563592 -0.173510 -0.125474 0.142999 0.370519 0.209813
huelga -0.717941 0.014689 -0.147568 0.706558 0.510388 0.024340 -0.626051 0.355266 -0.213308 -0.006384 -0.144951 -0.963747 0.569655 -0.482556 0.229121 -0.711596 0.634254 -0.035995 -0.196383 -1.076977 0.980705 0.598960 0.385325 -0.709516 0.169706 -0.897080 -0.489210 -0.294144 -0.063819 0.403554 0.430884 0.002957 1.058194 -0.591986 0.943791 0.628724 0.255190 0.526006 -0.209678 1.241994 -0.554209 0.198092 0.626431 -0.067582 0.727749 -0.229008 -0.155230 0.215867 0.490158 0.265861
entrevista -0.520150 0.017557 -0.094423 0.510225 0.357433 0.011432 -0.434979 0.268224 -0.132689 -0.005799 -0.116726 -0.684892 0.396623 -0.348555 0.136403 -0.500820 0.441353 -0.032918 -0.138776 -0.758435 0.687860 0.405500 0.281483 -0.488842 0.130224 -0.620933 -0.344211 -0.195300 -0.041879 0.259433 0.299718 0.004789 0.719789 -0.421501 0.637785 0.429887 0.177940 0.358771 -0.146638 0.848741 -0.396414 0.133614 0.424600 -0.066819 0.499334 -0.174486 -0.126596 0.139251 0.349868 0.182625
mitin -0.681323 0.017106 -0.129523 0.676605 0.478459 0.027916 -0.594834 0.348907 -0.187507 -0.001311 -0.147721 -0.913261 0.520816 -0.467186 0.205882 -0.678336 0.600007 -0.033250 -0.192772 -1.006113 0.908561 0.555617 0.371637 -0.658125 0.153106 -0.852332 -0.447457 -0.281323 -0.062490 0.370124 0.407481 0.003397 0.978764 -0.558229 0.859560 0.587745 0.246660 0.486220 -0.184215 1.142482 -0.518421 0.185435 0.587068 -0.074170 0.674841 -0.210276 -0.151234 0.194463 0.466816 0.248737
valencia -0.580313 0.013424 -0.113772 0.566112 0.406935 0.019930 -0.497853 0.305147 -0.153610 -0.010033 -0.123417 -0.792671 0.461609 -0.407226 0.187045 -0.586687 0.512157 -0.030986 -0.157781 -0.874330 0.798498 0.484493 0.316039 -0.563942 0.140202 -0.719094 -0.396038 -0.230753 -0.048843 0.308575 0.346372 -0.011691 0.844032 -0.488852 0.763096 0.510829 0.201839 0.433469 -0.157677 1.005811 -0.452552 0.152090 0.495692 -0.062570 0.574938 -0.176661 -0.126935 0.163513 0.410287 0.205444
fin -0.563529 0.011839 -0.105947 0.550625 0.396474 0.024970 -0.479708 0.278715 -0.145473 -0.007567 -0.106192 -0.757155 0.429727 -0.403214 0.166852 -0.564779 0.488443 -0.022966 -0.157218 -0.828100 0.767392 0.446699 0.302897 -0.548894 0.142352 -0.686063 -0.372067 -0.235305 -0.043741 0.287683 0.344283 -0.007179 0.803243 -0.463707 0.725186 0.480308 0.191517 0.407291 -0.151617 0.948188 -0.439159 0.154136 0.486480 -0.064251 0.552190 -0.184718 -0.113422 0.157995 0.370821 0.214425
paro -0.605282 0.004420 -0.115939 0.602804 0.410345 0.013830 -0.512944 0.307935 -0.160266 -0.010873 -0.122739 -0.807289 0.465261 -0.403133 0.184810 -0.590710 0.529481 -0.029978 -0.171068 -0.864924 0.823026 0.497086 0.324804 -0.576970 0.144441 -0.743310 -0.401821 -0.246441 -0.035057 0.325846 0.364810 0.004850 0.871051 -0.490996 0.781981 0.523416 0.229001 0.444373 -0.164368 1.022003 -0.460308 0.173335 0.502109 -0.056783 0.592343 -0.178194 -0.137902 0.173063 0.428261 0.212263
queda -0.506020 0.002428 -0.104008 0.484936 0.348224 0.013558 -0.441200 0.253060 -0.134864 -0.009898 -0.100526 -0.669572 0.391399 -0.340221 0.149124 -0.490015 0.441480 -0.019383 -0.139904 -0.739055 0.692645 0.426274 0.267567 -0.486804 0.119095 -0.621652 -0.332817 -0.208314 -0.036040 0.284767 0.308363 -0.000694 0.738679 -0.424336 0.645202 0.427968 0.175360 0.370432 -0.144641 0.858254 -0.397776 0.145448 0.427322 -0.039091 0.487065 -0.159818 -0.116484 0.140672 0.341941 0.192123
debate -0.596473 0.010055 -0.126117 0.581395 0.423562 0.010627 -0.516834 0.299278 -0.165011 0.004223 -0.115112 -0.796414 0.461851 -0.385064 0.179766 -0.597940 0.510278 -0.022970 -0.166365 -0.877287 0.807181 0.510341 0.333446 -0.589925 0.154025 -0.727884 -0.401007 -0.247285 -0.048339 0.322029 0.361203 0.004694 0.867475 -0.496744 0.771198 0.500679 0.227389 0.429605 -0.164687 1.007545 -0.446650 0.166318 0.519365 -0.069256 0.592575 -0.184081 -0.133610 0.171497 0.412158 0.200719
fue -0.617258 0.002911 -0.128431 0.607680 0.426382 0.012345 -0.541090 0.328074 -0.169529 -0.012460 -0.113786 -0.843088 0.477943 -0.416645 0.202616 -0.614931 0.555511 -0.040039 -0.166760 -0.909160 0.847227 0.519730 0.346108 -0.609111 0.144588 -0.776324 -0.429684 -0.258262 -0.060804 0.347414 0.379643 -0.012855 0.900137 -0.525709 0.819543 0.534181 0.230587 0.454095 -0.157737 1.057820 -0.489732 0.183555 0.527250 -0.070504 0.623705 -0.188247 -0.138471 0.185223 0.431881 0.220699
somos -0.566572 0.006202 -0.109281 0.549196 0.396347 0.015670 -0.470593 0.290572 -0.140957 -0.016746 -0.110029 -0.758845 0.428215 -0.387778 0.159980 -0.567148 0.498116 -0.040247 -0.164273 -0.843756 0.770428 0.468868 0.300895 -0.535221 0.135289 -0.695939 -0.363665 -0.242029 -0.052495 0.295156 0.327770 -0.007872 0.818093 -0.472244 0.716198 0.472176 0.201885 0.396963 -0.144794 0.951689 -0.440062 0.156638 0.483247 -0.054342 0.559653 -0.178554 -0.132491 0.169285 0.390461 0.211053
laboral -0.469093 0.008971 -0.106185 0.493580 0.348574 0.022837 -0.427104 0.261951 -0.159478 0.015725 -0.075166 -0.663961 0.399489 -0.318543 0.146025 -0.479337 0.431491 -0.047944 -0.149464 -0.715195 0.666894 0.421212 0.259985 -0.491269 0.143979 -0.597300 -0.353118 -0.194700 -0.014121 0.283170 0.308719 -0.003104 0.720493 -0.415723 0.640310 0.430225 0.178448 0.359986 -0.121032 0.840604 -0.394790 0.127039 0.420171 -0.027579 0.491616 -0.133918 -0.091056 0.136307 0.353071 0.172300
hora -0.598457 0.003571 -0.111742 0.600823 0.418947 0.015226 -0.529641 0.300139 -0.163232 -0.013189 -0.113157 -0.818937 0.468810 -0.420054 0.169984 -0.612821 0.523685 -0.021248 -0.166656 -0.906047 0.819606 0.490961 0.323268 -0.588255 0.151386 -0.739729 -0.408244 -0.259385 -0.045567 0.323834 0.352401 -0.011600 0.869393 -0.510405 0.777405 0.513252 0.223694 0.432323 -0.158304 1.033252 -0.462682 0.179102 0.512637 -0.056445 0.594036 -0.191209 -0.125833 0.186579 0.409235 0.231469
estar -0.459519 -0.004470 -0.093902 0.454585 0.310035 0.003805 -0.386845 0.241019 -0.110618 -0.001246 -0.100280 -0.615675 0.343068 -0.322783 0.129137 -0.446701 0.390839 -0.014320 -0.132125 -0.690554 0.622507 0.378364 0.254593 -0.443867 0.107586 -0.577779 -0.299524 -0.184271 -0.044246 0.240160 0.278521 0.000082 0.674121 -0.368845 0.593242 0.400547 0.163434 0.332589 -0.123728 0.787205 -0.364041 0.117425 0.393565 -0.039548 0.453052 -0.134987 -0.097471 0.129270 0.304605 0.175944
españoles -0.557016 0.007530 -0.107609 0.553071 0.396185 0.012781 -0.468232 0.294363 -0.160054 0.000121 -0.097939 -0.752383 0.430673 -0.380455 0.183338 -0.563692 0.483353 -0.029348 -0.147599 -0.811716 0.755063 0.476715 0.302164 -0.533275 0.131544 -0.685623 -0.374633 -0.217223 -0.038978 0.307405 0.327080 0.000881 0.808432 -0.466377 0.726373 0.475416 0.211139 0.414285 -0.158219 0.939864 -0.423630 0.152694 0.490084 -0.055899 0.559061 -0.167557 -0.111891 0.172856 0.375286 0.195914
apoyo -0.616840 -0.005146 -0.131506 0.604535 0.416157 0.013458 -0.525257 0.319301 -0.180634 -0.011293 -0.129613 -0.806012 0.467903 -0.404874 0.189519 -0.604679 0.521627 -0.034666 -0.171615 -0.904140 0.841854 0.500247 0.347969 -0.595577 0.155225 -0.759254 -0.417095 -0.250177 -0.059950 0.335372 0.363866 0.005002 0.886408 -0.498584 0.801046 0.514287 0.211751 0.446550 -0.163005 1.035132 -0.470544 0.162284 0.524644 -0.054187 0.611892 -0.190622 -0.139220 0.171508 0.413613 0.224591
enhorabuena -0.540717 0.010870 -0.111572 0.530240 0.369319 0.020335 -0.448349 0.274994 -0.132692 -0.005817 -0.119274 -0.716568 0.406681 -0.381383 0.140553 -0.529005 0.480904 -0.033177 -0.146404 -0.811498 0.716503 0.417330 0.290573 -0.518595 0.134864 -0.660070 -0.347058 -0.225538 -0.062933 0.283380 0.328141 0.010193 0.763876 -0.463119 0.688034 0.449472 0.176427 0.380471 -0.143151 0.901136 -0.424875 0.142231 0.454358 -0.067348 0.535665 -0.186933 -0.124287 0.151689 0.361985 0.199542
todas -0.546837 0.011510 -0.110895 0.520582 0.376345 0.028909 -0.472750 0.272097 -0.136482 -0.005590 -0.122239 -0.719021 0.408917 -0.381628 0.152918 -0.535300 0.468213 -0.033162 -0.152270 -0.811548 0.726778 0.438728 0.304744 -0.530002 0.127595 -0.678004 -0.350504 -0.222456 -0.064089 0.290130 0.329625 -0.001139 0.771770 -0.447742 0.692651 0.448911 0.181250 0.390683 -0.151961 0.916546 -0.411000 0.151890 0.468456 -0.071323 0.531143 -0.167995 -0.119383 0.157526 0.358302 0.202990
puedo -0.601681 0.014579 -0.113230 0.611400 0.412194 0.015273 -0.528854 0.319816 -0.159712 -0.004327 -0.112201 -0.818596 0.464503 -0.429673 0.185222 -0.600092 0.527374 -0.028420 -0.158215 -0.890284 0.822472 0.508342 0.330374 -0.566575 0.140069 -0.759588 -0.415303 -0.251138 -0.052127 0.341263 0.366032 0.004586 0.877916 -0.499170 0.792611 0.530140 0.222200 0.448433 -0.166275 1.025123 -0.455368 0.174336 0.519745 -0.048442 0.601139 -0.184738 -0.143318 0.182221 0.416905 0.229492
tarde -0.605049 0.012821 -0.118574 0.599705 0.431743 0.020826 -0.521543 0.296191 -0.163944 -0.007957 -0.117383 -0.810598 0.477753 -0.411467 0.190772 -0.603742 0.535572 -0.021520 -0.163666 -0.895584 0.822369 0.504390 0.314382 -0.581046 0.150900 -0.755551 -0.389666 -0.252977 -0.054343 0.330715 0.362048 -0.006829 0.883365 -0.501384 0.783855 0.509942 0.212019 0.447925 -0.159625 1.032377 -0.472833 0.156842 0.523193 -0.071191 0.605302 -0.189171 -0.130427 0.168305 0.410578 0.223559
mercados -0.587757 0.008273 -0.123188 0.574734 0.402981 0.006165 -0.506988 0.305116 -0.157678 -0.014343 -0.111884 -0.787255 0.451560 -0.394397 0.193041 -0.588661 0.505773 -0.030008 -0.156915 -0.875488 0.791841 0.498210 0.312189 -0.569971 0.146286 -0.726276 -0.403875 -0.251600 -0.058480 0.324540 0.346927 -0.012860 0.847068 -0.489213 0.766037 0.514131 0.218978 0.437178 -0.156201 1.012398 -0.464615 0.169962 0.496387 -0.062455 0.589681 -0.188062 -0.120896 0.172448 0.406540 0.206113
vota -0.590435 0.010882 -0.107677 0.573853 0.387613 0.011776 -0.499123 0.304349 -0.160878 -0.004665 -0.116412 -0.777596 0.442391 -0.391247 0.175062 -0.580708 0.512823 -0.029582 -0.154573 -0.851214 0.777036 0.468702 0.314048 -0.554666 0.148006 -0.714169 -0.386788 -0.221226 -0.060487 0.317800 0.339336 -0.003722 0.833102 -0.487691 0.752943 0.496609 0.194688 0.418094 -0.144702 0.972075 -0.444814 0.170396 0.507928 -0.060322 0.583711 -0.186438 -0.137618 0.179093 0.404119 0.208911
sanidad -0.601738 0.005751 -0.118219 0.578618 0.409842 0.009017 -0.515893 0.301823 -0.162204 0.002615 -0.120226 -0.803415 0.478214 -0.395710 0.194955 -0.591521 0.512679 -0.026946 -0.165734 -0.884624 0.824838 0.499577 0.326218 -0.587934 0.152105 -0.738954 -0.406779 -0.246619 -0.043651 0.339635 0.362603 -0.010639 0.872580 -0.495909 0.772830 0.521965 0.220726 0.449211 -0.173648 1.009515 -0.456694 0.174296 0.511188 -0.048332 0.580053 -0.188807 -0.139190 0.162760 0.423035 0.209136
parte -0.565452 0.006397 -0.105418 0.560262 0.407657 0.010284 -0.491321 0.297264 -0.172266 -0.007418 -0.111140 -0.779143 0.447730 -0.380977 0.172588 -0.577952 0.502667 -0.041722 -0.152057 -0.844984 0.780356 0.487717 0.322648 -0.550057 0.142519 -0.711795 -0.383697 -0.241177 -0.051594 0.311746 0.340464 0.007736 0.839364 -0.474393 0.748000 0.490873 0.210543 0.429013 -0.160496 0.982924 -0.455584 0.150435 0.494741 -0.050746 0.571317 -0.178556 -0.120645 0.168599 0.409329 0.196026
equipo -0.540513 0.001282 -0.095906 0.536094 0.359454 0.028078 -0.456025 0.276039 -0.158733 0.002856 -0.106976 -0.723038 0.423075 -0.381362 0.167896 -0.525140 0.473048 -0.018850 -0.152707 -0.784671 0.725556 0.438413 0.295783 -0.528176 0.131461 -0.659900 -0.361442 -0.212280 -0.056164 0.280932 0.323168 -0.008858 0.769863 -0.447358 0.699962 0.470413 0.190201 0.399260 -0.150086 0.916210 -0.424290 0.142335 0.463105 -0.055166 0.531712 -0.179672 -0.119245 0.161826 0.374353 0.193605
sociales -0.570370 0.004400 -0.098585 0.559747 0.389559 0.011240 -0.494407 0.290518 -0.164025 0.004401 -0.114160 -0.743807 0.428145 -0.391121 0.182568 -0.543890 0.487495 -0.023738 -0.146407 -0.812097 0.769445 0.473865 0.305065 -0.539438 0.124073 -0.698379 -0.367095 -0.225783 -0.036174 0.309173 0.328479 0.004887 0.803149 -0.469369 0.737512 0.487640 0.192395 0.417001 -0.146105 0.967283 -0.436653 0.163080 0.480610 -0.068905 0.561548 -0.178125 -0.119884 0.163413 0.392084 0.199653
junta -0.598498 0.007946 -0.131885 0.607674 0.427417 0.012165 -0.536287 0.318071 -0.177963 -0.008374 -0.117367 -0.802415 0.465589 -0.403157 0.186585 -0.603020 0.537338 -0.035317 -0.173815 -0.879857 0.843226 0.518966 0.325351 -0.602509 0.149578 -0.746215 -0.418227 -0.250630 -0.033000 0.326430 0.362122 -0.008540 0.879729 -0.498525 0.785945 0.522183 0.233271 0.452296 -0.164742 1.028285 -0.481984 0.160526 0.512070 -0.059746 0.593594 -0.195427 -0.124695 0.180282 0.435956 0.211091
calle -0.642268 -0.003856 -0.122802 0.638474 0.439297 0.021267 -0.546228 0.322686 -0.188261 0.004087 -0.122090 -0.863732 0.508425 -0.432919 0.189657 -0.623603 0.568338 -0.035006 -0.168579 -0.937251 0.884539 0.530391 0.358224 -0.617168 0.144304 -0.793768 -0.423307 -0.261392 -0.037681 0.364183 0.378285 -0.015196 0.928490 -0.530634 0.823004 0.546185 0.231789 0.475888 -0.166034 1.104099 -0.488830 0.171081 0.553282 -0.065348 0.630360 -0.196479 -0.152055 0.181947 0.439936 0.220479
justicia -0.574381 0.000720 -0.110627 0.574253 0.401938 0.019499 -0.490918 0.297009 -0.166799 0.005038 -0.102377 -0.772148 0.443958 -0.389118 0.178320 -0.567572 0.500138 -0.044777 -0.151944 -0.835017 0.779074 0.490972 0.325989 -0.564523 0.146865 -0.718644 -0.392394 -0.230970 -0.029161 0.312649 0.355853 0.004130 0.832554 -0.475551 0.749884 0.500475 0.204377 0.423442 -0.167238 0.990255 -0.442319 0.154925 0.483693 -0.047998 0.570167 -0.164515 -0.115853 0.164397 0.393905 0.210349
